{"learner":{"attributes":{"scikit_learn":"{\"_estimator_type\": \"classifier\"}"},"feature_names":[],"feature_types":[],"gradient_booster":{"model":{"gbtree_model_param":{"num_parallel_tree":"1","num_trees":"300"},"iteration_indptr":[0,1,2,3,4,5,6,7,8,9,10,11,12,13,14,15,16,17,18,19,20,21,22,23,24,25,26,27,28,29,30,31,32,33,34,35,36,37,38,39,40,41,42,43,44,45,46,47,48,49,50,51,52,53,54,55,56,57,58,59,60,61,62,63,64,65,66,67,68,69,70,71,72,73,74,75,76,77,78,79,80,81,82,83,84,85,86,87,88,89,90,91,92,93,94,95,96,97,98,99,100,101,102,103,104,105,106,107,108,109,110,111,112,113,114,115,116,117,118,119,120,121,122,123,124,125,126,127,128,129,130,131,132,133,134,135,136,137,138,139,140,141,142,143,144,145,146,147,148,149,150,151,152,153,154,155,156,157,158,159,160,161,162,163,164,165,166,167,168,169,170,171,172,173,174,175,176,177,178,179,180,181,182,183,184,185,186,187,188,189,190,191,192,193,194,195,196,197,198,199,200,201,202,203,204,205,206,207,208,209,210,211,212,213,214,215,216,217,218,219,220,221,222,223,224,225,226,227,228,229,230,231,232,233,234,235,236,237,238,239,240,241,242,243,244,245,246,247,248,249,250,251,252,253,254,255,256,257,258,259,260,261,262,263,264,265,266,267,268,269,270,271,272,273,274,275,276,277,278,279,280,281,282,283,284,285,286,287,288,289,290,291,292,293,294,295,296,297,298,299,300],"tree_info":[0,0,0,0,0,0,0,0,0,0,0,0,0,0,0,0,0,0,0,0,0,0,0,0,0,0,0,0,0,0,0,0,0,0,0,0,0,0,0,0,0,0,0,0,0,0,0,0,0,0,0,0,0,0,0,0,0,0,0,0,0,0,0,0,0,0,0,0,0,0,0,0,0,0,0,0,0,0,0,0,0,0,0,0,0,0,0,0,0,0,0,0,0,0,0,0,0,0,0,0,0,0,0,0,0,0,0,0,0,0,0,0,0,0,0,0,0,0,0,0,0,0,0,0,0,0,0,0,0,0,0,0,0,0,0,0,0,0,0,0,0,0,0,0,0,0,0,0,0,0,0,0,0,0,0,0,0,0,0,0,0,0,0,0,0,0,0,0,0,0,0,0,0,0,0,0,0,0,0,0,0,0,0,0,0,0,0,0,0,0,0,0,0,0,0,0,0,0,0,0,0,0,0,0,0,0,0,0,0,0,0,0,0,0,0,0,0,0,0,0,0,0,0,0,0,0,0,0,0,0,0,0,0,0,0,0,0,0,0,0,0,0,0,0,0,0,0,0,0,0,0,0,0,0,0,0,0,0,0,0,0,0,0,0,0,0,0,0,0,0,0,0,0,0,0,0,0,0,0,0,0,0,0,0,0,0,0,0,0,0,0,0,0,0,0,0,0,0,0,0],"trees":[{"base_weights":[-3.857339E-3,1.0328916E0,-1.7457973E0,1.5969353E-2,1.6216196E0,-1.8654948E0,5.623647E-1,-9.810226E-1,4.5048416E-1,1.6448327E0,-5.368421E-2,-1.9084115E0,9.305347E-1,1.2835621E0,-5.5932205E-2,1.3730775E0,-1.343903E0,-1.5751433E0,7.354142E-1,1.1391332E0,1.7673047E0,-9.8020136E-1,-1.9292666E0,4.996718E-2,-4.7368422E-2,1.6789197E0,-5.0399996E-2,-4.588235E-2,1.7556878E0,-1.6616029E0,-1.2464254E-1,1.3023635E0,-5.8987338E-2,8.141337E-1,-5.5789474E-2,-5.563636E-2,1.3001212E0,1.780607E0,-4.7368422E-2,4.5186035E-2,-5.7108432E-2,-1.971014E0,-1.6761026E0,-3.3333335E-2,1.7874993E0,-3.3333335E-2,5.781037E-2,4.2036932E-2,-5.4488655E-2,-5.612903E-2,2.4585055E-2,-3E-2,5.2105747E-2,3.0183977E-2,-2.0917682E-3,-5.0399996E-2,4.1139398E-2,-4.2857144E-2,5.3685825E-2,-5.2875813E-2,-5.9930332E-2,-5.453286E-2,-6.2520383E-4,5.6372676E-2,-3E-2],"categories":[],"categories_nodes":[],"categories_segments":[],"categories_sizes":[],"default_left":[0,0,0,0,0,0,0,0,0,0,0,0,0,0,0,0,0,0,0,0,0,0,0,0,0,0,0,0,0,0,0,0,0,0,0,0,0,0,0,0,0,0,0,0,0,0,0,0,0,0,0,0,0,0,0,0,0,0,0,0,0,0,0,0,0],"id":0,"left_children":[1,3,5,7,9,11,13,15,17,19,-1,21,23,25,-1,27,29,31,33,35,37,39,41,-1,-1,43,-1,-1,45,47,49,51,-1,53,-1,-1,55,57,-1,-1,-1,59,61,-1,63,-1,-1,-1,-1,-1,-1,-1,-1,-1,-1,-1,-1,-1,-1,-1,-1,-1,-1,-1,-1],"loss_changes":[6.070748E3,1.2616023E3,3.4756226E2,3.3560504E2,1.0862256E2,1.4488379E2,1.11959335E2,2.0272739E2,3.1255093E2,8.011987E1,0E0,2.085254E1,3.712494E1,6.00598E1,0E0,3.8112915E1,7.8911865E1,7.779407E1,9.8276825E1,1.2837479E2,5.0252197E1,6.681125E1,8.830078E0,0E0,0E0,1.5195145E1,0E0,0E0,1.6213562E1,7.927365E1,7.292789E1,1.0340466E1,0E0,7.820395E1,0E0,0E0,5.505014E1,3.2959717E1,0E0,0E0,0E0,1.9260254E0,3.9636932E1,0E0,1.2692047E1,0E0,0E0,0E0,0E0,0E0,0E0,0E0,0E0,0E0,0E0,0E0,0E0,0E0,0E0,0E0,0E0,0E0,0E0,0E0,0E0],"parents":[2147483647,0,0,1,1,2,2,3,3,4,4,5,5,6,6,7,7,8,8,9,9,11,11,12,12,13,13,15,15,16,16,17,17,18,18,19,19,20,20,21,21,22,22,25,25,28,28,29,29,30,30,31,31,33,33,36,36,37,37,41,41,42,42,44,44],"right_children":[2,4,6,8,10,12,14,16,18,20,-1,22,24,26,-1,28,30,32,34,36,38,40,42,-1,-1,44,-1,-1,46,48,50,52,-1,54,-1,-1,56,58,-1,-1,-1,60,62,-1,64,-1,-1,-1,-1,-1,-1,-1,-1,-1,-1,-1,-1,-1,-1,-1,-1,-1,-1,-1,-1],"split_conditions":[-4.5033917E-1,7.011112E-1,1.8617916E-1,4.0233195E-1,-3.8083243E-1,2.014881E0,-1.6763154E-1,-7.3431975E-1,2.7218294E-1,1.6875114E0,-5.368421E-2,-1.2118049E0,2.1069773E-1,-5.826829E-1,-5.5932205E-2,4.0640116E-1,-5.4512795E-2,-1.2366986E0,6.0278E-1,2.57566E-1,-3.4270096E-1,-7.7804804E-1,1.5016029E0,4.996718E-2,-4.7368422E-2,-1.3152547E0,-5.0399996E-2,-4.588235E-2,-1.0080571E0,-7.8585304E-2,1.2041814E0,-3.9905244E-1,-5.8987338E-2,-5.6316996E-1,-5.5789474E-2,-5.563636E-2,-2.8976973E-2,-7.0574576E-1,-4.7368422E-2,4.5186035E-2,-5.7108432E-2,-1.6107501E-1,1.3692539E0,-3.3333335E-2,2.483007E-1,-3.3333335E-2,5.781037E-2,4.2036932E-2,-5.4488655E-2,-5.612903E-2,2.4585055E-2,-3E-2,5.2105747E-2,3.0183977E-2,-2.0917682E-3,-5.0399996E-2,4.1139398E-2,-4.2857144E-2,5.3685825E-2,-5.2875813E-2,-5.9930332E-2,-5.453286E-2,-6.2520383E-4,5.6372676E-2,-3E-2],"split_indices":[27,6,15,26,12,20,3,19,20,6,0,13,0,19,0,3,11,13,18,26,19,2,28,0,0,2,0,0,13,0,20,2,0,12,0,0,17,23,0,0,0,27,3,0,10,0,0,0,0,0,0,0,0,0,0,0,0,0,0,0,0,0,0,0,0],"split_type":[0,0,0,0,0,0,0,0,0,0,0,0,0,0,0,0,0,0,0,0,0,0,0,0,0,0,0,0,0,0,0,0,0,0,0,0,0,0,0,0,0,0,0,0,0,0,0,0,0,0,0,0,0,0,0,0,0,0,0,0,0,0,0,0,0],"sum_hessian":[3.3595186E3,2.106313E3,1.2532056E3,7.7267755E2,1.3336355E3,1.1916028E3,6.1602802E1,2.341542E2,5.385234E2,1.3251355E3,8.5E0,1.1739019E3,1.7700935E1,4.7852802E1,1.375E1,3.0901869E1,2.0325233E2,6.5850464E1,4.7267288E2,2.6036447E2,1.064771E3,2.6850468E1,1.1470514E3,1.3950934E1,3.75E0,4.2602802E1,5.25E0,3.25E0,2.7651869E1,1.6095093E2,4.2301403E1,7.600467E0,5.825E1,4.5942288E2,1.325E1,1.275E1,2.4761449E2,1.061021E3,3.75E0,7.100467E0,1.975E1,9.7885046E2,1.6820093E2,1.25E0,4.1352802E1,1.25E0,2.6401869E1,7.350467E0,1.5360046E2,1.45E1,2.7801401E1,1E0,6.600467E0,3.773201E2,8.2102806E1,5.25E0,2.4236449E2,2.5E0,1.058521E3,1.18600464E2,8.6025E2,1.5485046E2,1.3350468E1,4.0352802E1,1E0],"tree_param":{"num_deleted":"0","num_feature":"30","num_nodes":"65","size_leaf_vector":"1"}},{"base_weights":[-5.4812964E-2,9.6645594E-1,-1.7363834E0,9.753583E-2,1.5669043E0,-1.8764914E0,6.985977E-1,-3.8094035E-1,9.540937E-1,1.6029259E0,-5.510122E-2,-1.8976649E0,4.3018988E-1,1.418881E0,-5.4730672E-2,-1.6966121E0,-3.738031E-2,-8.2828337E-1,1.1075809E0,1.1467825E0,1.700848E0,-1.918978E0,-9.505965E-1,5.0831772E-2,-4.732297E-2,1.6869355E0,-4.6683453E-2,-5.031535E-1,-5.7840914E-2,-1.2511317E0,2.255071E-1,4.3902107E-2,-5.525108E-2,1.1820216E0,-5.243209E-2,-5.1558696E-2,1.2542E0,1.7119235E0,-4.394149E-2,-1.7471418E0,-5.823214E-2,4.1139055E-2,-5.550871E-2,1.0072E0,5.4096587E-2,-5.3755052E-2,4.342714E-2,5.8794185E-3,-5.7266336E-2,1.762825E-2,-2.455499E-2,3.6863644E-2,-4.708566E-2,-4.7758404E-2,3.973415E-2,-4.0637244E-2,5.16085E-2,-2.759782E-2,-5.7950303E-2,-3.9354794E-2,5.3708494E-2],"categories":[],"categories_nodes":[],"categories_segments":[],"categories_sizes":[],"default_left":[0,0,0,0,0,0,0,0,0,0,0,0,0,0,0,0,0,0,0,0,0,0,0,0,0,0,0,0,0,0,0,0,0,0,0,0,0,0,0,0,0,0,0,0,0,0,0,0,0,0,0,0,0,0,0,0,0,0,0,0,0],"id":1,"left_children":[1,3,5,7,9,11,13,15,17,19,-1,21,23,25,-1,27,29,31,33,35,37,39,41,-1,-1,43,-1,45,-1,47,49,-1,-1,51,-1,-1,53,55,-1,57,-1,-1,-1,59,-1,-1,-1,-1,-1,-1,-1,-1,-1,-1,-1,-1,-1,-1,-1,-1,-1],"loss_changes":[5.6947354E3,1.0762527E3,4.2876782E2,3.4632782E2,1.5251587E2,5.8694824E1,1.2779742E2,2.4506949E2,8.376184E1,5.199414E1,0E0,2.1881836E1,3.2098988E1,4.58164E1,0E0,3.0037292E1,1.3782019E2,5.978527E1,6.1419525E1,6.8797516E1,3.7294434E1,9.658203E-1,6.0674614E1,0E0,0E0,2.1488953E0,0E0,5.183298E1,0E0,7.356259E1,1.3474182E2,0E0,0E0,3.702545E1,0E0,0E0,4.3963104E1,2.7688965E1,0E0,1.9708862E1,0E0,0E0,0E0,1.9770014E1,0E0,0E0,0E0,0E0,0E0,0E0,0E0,0E0,0E0,0E0,0E0,0E0,0E0,0E0,0E0,0E0,0E0],"parents":[2147483647,0,0,1,1,2,2,3,3,4,4,5,5,6,6,7,7,8,8,9,9,11,11,12,12,13,13,15,15,16,16,17,17,18,18,19,19,20,20,21,21,22,22,25,25,27,27,29,29,30,30,33,33,36,36,37,37,39,39,43,43],"right_children":[2,4,6,8,10,12,14,16,18,20,-1,22,24,26,-1,28,30,32,34,36,38,40,42,-1,-1,44,-1,46,-1,48,50,-1,-1,52,-1,-1,54,56,-1,58,-1,-1,-1,60,-1,-1,-1,-1,-1,-1,-1,-1,-1,-1,-1,-1,-1,-1,-1,-1,-1],"split_conditions":[-4.5033917E-1,-4.0433925E-2,9.09111E-1,-5.4512795E-2,-5.0703126E-1,2.1410947E0,-5.0703126E-1,1.030775E-1,3.7020954E-1,1.6875114E0,-5.510122E-2,2.554021E-1,2.1973345E0,-1.6763154E-1,-5.4730672E-2,-1.1131419E0,2.5975847E-1,-7.35888E-1,8.754381E-1,-2.3939334E-2,-3.4270096E-1,-1.6107501E-1,-1.2118049E0,5.0831772E-2,-4.732297E-2,3.046833E-2,-4.6683453E-2,-1.1224759E0,-5.7840914E-2,-5.4727805E-1,-7.251875E-1,4.3902107E-2,-5.525108E-2,6.0278E-1,-5.243209E-2,-5.1558696E-2,1.5281998E-1,-1.2467256E0,-4.394149E-2,-9.1940486E-1,-5.823214E-2,4.1139055E-2,-5.550871E-2,1.702481E0,5.4096587E-2,-5.3755052E-2,4.342714E-2,5.8794185E-3,-5.7266336E-2,1.762825E-2,-2.455499E-2,3.6863644E-2,-4.708566E-2,-4.7758404E-2,3.973415E-2,-4.0637244E-2,5.16085E-2,-2.759782E-2,-5.7950303E-2,-3.9354794E-2,5.3708494E-2],"split_indices":[27,15,22,11,9,20,9,18,20,6,0,11,20,3,0,13,20,19,3,7,19,27,13,0,0,10,0,13,0,20,9,0,0,18,0,0,14,23,0,13,0,0,0,8,0,0,0,0,0,0,0,0,0,0,0,0,0,0,0,0,0],"split_type":[0,0,0,0,0,0,0,0,0,0,0,0,0,0,0,0,0,0,0,0,0,0,0,0,0,0,0,0,0,0,0,0,0,0,0,0,0,0,0,0,0,0,0,0,0,0,0,0,0,0,0,0,0,0,0,0,0,0,0,0,0],"sum_hessian":[3.3140522E3,2.0621008E3,1.2519513E3,8.431398E2,1.218961E3,1.1840508E3,6.790051E1,5.4131476E2,3.0182504E2,1.206719E3,1.2242086E1,1.1734567E3,1.0594059E1,5.316106E1,1.4739454E1,1.11269005E2,4.3004575E2,2.3581959E1,2.7824307E2,2.1551459E2,9.912044E2,1.1466265E3,2.6830235E1,6.596349E0,3.9977098E0,4.9164207E1,3.9968538E0,1.8587053E1,9.268195E1,7.5892204E1,3.5415356E2,7.0946064E0,1.6487352E1,2.7174448E2,6.498598E0,7.24524E0,2.0826935E2,9.882061E2,2.9982781E0,1.3975226E2,1.0068742E3,7.346488E0,1.9483746E1,8.593371E0,4.0570835E1,1.124191E1,7.345143E0,2.3934896E1,5.1957306E1,2.6327643E2,9.087711E1,2.6774713E2,3.9973445E0,4.496533E0,2.0377283E2,2.2489018E0,9.859572E2,2.6581333E1,1.1317092E2,1.9988272E0,6.5945444E0],"tree_param":{"num_deleted":"0","num_feature":"30","num_nodes":"61","size_leaf_vector":"1"}},{"base_weights":[1.1901757E-2,1.0033438E0,-1.6871582E0,1.698713E-1,1.5289961E0,-1.7640978E0,9.630693E-1,-2.6514354E-1,9.8368675E-1,1.566978E0,-5.415176E-2,-1.823247E0,-1.5923093E-1,1.3255203E0,-4.62231E-2,-1.2496971E0,2.285143E-2,-8.282108E-1,1.1478461E0,-5.06099E-2,1.585288E0,-3.835086E-1,-1.8439021E0,9.2455405E-1,-5.3840037E-2,-3.8189523E-2,1.5419196E0,3.79296E-1,-1.6194891E0,-8.130075E-1,4.263336E-1,4.3009423E-2,-5.482401E-2,1.2135638E0,-4.9612608E-2,1.125354E0,1.6890293E0,-5.1620875E-2,4.9361147E-2,-5.6649264E-2,-1.584186E0,-4.6440046E-2,1.447676E0,-3.1541817E-2,5.0751723E-2,4.5202527E-2,-5.073813E-2,6.524089E-3,-5.6249913E-2,-4.0608786E-2,6.299931E-3,-3.4025952E-2,1.942731E-2,3.778084E-2,-4.536187E-2,-5.5824712E-2,3.9017383E-2,5.1007006E-2,-4.4197496E-2,-5.6432717E-2,-2.5051486E-2,4.9190607E-2,-3.1660177E-2],"categories":[],"categories_nodes":[],"categories_segments":[],"categories_sizes":[],"default_left":[0,0,0,0,0,0,0,0,0,0,0,0,0,0,0,0,0,0,0,0,0,0,0,0,0,0,0,0,0,0,0,0,0,0,0,0,0,0,0,0,0,0,0,0,0,0,0,0,0,0,0,0,0,0,0,0,0,0,0,0,0,0,0],"id":2,"left_children":[1,3,5,7,9,11,13,15,17,19,-1,21,23,25,-1,27,29,31,33,-1,35,37,39,41,-1,-1,43,45,47,49,51,-1,-1,53,-1,55,57,-1,-1,-1,59,-1,61,-1,-1,-1,-1,-1,-1,-1,-1,-1,-1,-1,-1,-1,-1,-1,-1,-1,-1,-1,-1],"loss_changes":[5.700014E3,9.359297E2,2.5595312E2,2.932379E2,1.6875415E2,1.14768555E2,3.4554173E1,1.5316702E2,8.675781E1,7.989404E1,0E0,3.4053467E1,7.9967415E1,1.9862621E1,0E0,7.425383E1,1.4160098E2,5.8099556E1,5.078601E1,0E0,5.9618164E1,5.1109085E1,1.0295898E1,3.7463768E1,0E0,0E0,1.3370224E1,5.7237408E1,4.7258667E1,7.588766E1,9.848906E1,0E0,0E0,3.4289856E1,0E0,1.2815219E2,3.9708252E1,0E0,0E0,0E0,3.7227478E1,0E0,1.2781052E1,0E0,0E0,0E0,0E0,0E0,0E0,0E0,0E0,0E0,0E0,0E0,0E0,0E0,0E0,0E0,0E0,0E0,0E0,0E0,0E0],"parents":[2147483647,0,0,1,1,2,2,3,3,4,4,5,5,6,6,7,7,8,8,9,9,11,11,12,12,13,13,15,15,16,16,17,17,18,18,20,20,21,21,22,22,23,23,26,26,27,27,28,28,29,29,30,30,33,33,35,35,36,36,40,40,42,42],"right_children":[2,4,6,8,10,12,14,16,18,20,-1,22,24,26,-1,28,30,32,34,-1,36,38,40,42,-1,-1,44,46,48,50,52,-1,-1,54,-1,56,58,-1,-1,-1,60,-1,62,-1,-1,-1,-1,-1,-1,-1,-1,-1,-1,-1,-1,-1,-1,-1,-1,-1,-1,-1,-1],"split_conditions":[-4.5033917E-1,7.011112E-1,1.8822042E0,-5.4512795E-2,-5.0703126E-1,2.554021E-1,2.1973345E0,1.894763E-1,-1.3181316E0,-6.516449E-1,-5.415176E-2,-7.3431975E-1,-6.258031E-1,5.2499473E-2,-4.62231E-2,1.1451211E-2,2.4628362E-1,-4.6841685E-2,8.754381E-1,-5.06099E-2,1.6875114E0,7.94687E-2,1.5016029E0,-6.382341E-1,-5.3840037E-2,-3.8189523E-2,-8.6588955E-1,-6.403741E-1,-1.1131419E0,1.9634083E-1,2.5975847E-1,4.3009423E-2,-5.482401E-2,6.0278E-1,-4.9612608E-2,-6.932223E-1,-3.502688E-1,-5.1620875E-2,4.9361147E-2,-5.6649264E-2,5.605136E-1,-4.6440046E-2,9.042235E-2,-3.1541817E-2,5.0751723E-2,4.5202527E-2,-5.073813E-2,6.524089E-3,-5.6249913E-2,-4.0608786E-2,6.299931E-3,-3.4025952E-2,1.942731E-2,3.778084E-2,-4.536187E-2,-5.5824712E-2,3.9017383E-2,5.1007006E-2,-4.4197496E-2,-5.6432717E-2,-2.5051486E-2,4.9190607E-2,-3.1660177E-2],"split_indices":[27,6,20,11,9,11,20,5,27,23,0,19,19,10,0,0,3,0,3,0,6,0,28,1,0,0,3,9,13,0,20,0,0,18,0,1,19,0,0,0,10,0,0,0,0,0,0,0,0,0,0,0,0,0,0,0,0,0,0,0,0,0,0],"split_type":[0,0,0,0,0,0,0,0,0,0,0,0,0,0,0,0,0,0,0,0,0,0,0,0,0,0,0,0,0,0,0,0,0,0,0,0,0,0,0,0,0,0,0,0,0,0,0,0,0,0,0,0,0,0,0,0,0,0,0,0,0,0,0],"sum_hessian":[3.3817576E3,2.1358486E3,1.2459092E3,8.26568E2,1.3092805E3,1.2110841E3,3.4824974E1,5.3908246E2,2.8748557E2,1.2950571E3,1.4223417E1,1.1679037E3,4.318044E1,3.0832348E1,3.9926271E0,1.2124593E2,4.1783652E2,2.3546587E1,2.6393896E2,6.736544E0,1.2883206E3,1.6795073E1,1.1511086E3,2.6231682E1,1.6948755E1,1.9949214E0,2.8837427E1,2.2426754E1,9.8819176E1,1.3570119E2,2.821353E2,7.0818377E0,1.646475E1,2.5844345E2,5.4955254E0,2.3928865E2,1.0490319E3,1.0214702E1,6.580371E0,9.776732E2,1.7343542E2,4.238603E0,2.199308E1,1.2461696E0,2.7591257E1,1.4696558E1,7.730197E0,1.2084847E1,8.673433E1,8.857142E1,4.712977E1,3.4520416E1,2.476149E2,2.5470175E2,3.7417002E0,1.2729741E1,2.2655891E2,1.045789E3,3.2429898E0,1.23125984E2,5.0309437E1,2.0746492E1,1.2465872E0],"tree_param":{"num_deleted":"0","num_feature":"30","num_nodes":"63","size_leaf_vector":"1"}},{"base_weights":[-1.9689262E-2,9.5495015E-1,-1.7186944E0,1.1755292E-1,1.5129391E0,-1.7975329E0,1.2687951E-1,-3.5865027E-1,9.633961E-1,1.5465598E0,-5.226853E-2,-1.8186167E0,3.181239E-1,1.0775025E0,-5.2532017E-2,-1.6275657E0,1.2691235E-3,-8.3684355E-1,1.1216152E0,1.5612303E0,-4.9443927E-2,-5.518472E-2,-1.6858743E0,5.1011924E-2,-4.7063638E-2,-4.681507E-2,1.5791914E0,3.787416E-2,-5.507712E-2,-1.4725938E0,2.8740066E-1,4.196807E-2,-5.3497996E-2,1.190308E0,-4.9295247E-2,-4.4183098E-2,1.5714841E0,-5.497947E-2,-1.2169412E0,1.0250652E0,5.223816E-2,-4.82842E-2,4.797443E-2,-7.463693E-3,-5.4742113E-2,1.746554E-2,-2.0358823E-2,3.8606673E-2,-1.0992226E-2,4.0362407E-2,5.0784186E-2,4.2847563E-2,-5.4582134E-2,4.4777013E-2,-3.173124E-2],"categories":[],"categories_nodes":[],"categories_segments":[],"categories_sizes":[],"default_left":[0,0,0,0,0,0,0,0,0,0,0,0,0,0,0,0,0,0,0,0,0,0,0,0,0,0,0,0,0,0,0,0,0,0,0,0,0,0,0,0,0,0,0,0,0,0,0,0,0,0,0,0,0,0,0],"id":3,"left_children":[1,3,5,7,9,11,13,15,17,19,-1,21,23,25,-1,27,29,31,33,35,-1,-1,37,-1,-1,-1,39,41,-1,43,45,-1,-1,47,-1,-1,49,-1,51,53,-1,-1,-1,-1,-1,-1,-1,-1,-1,-1,-1,-1,-1,-1,-1],"loss_changes":[5.5106704E3,9.87958E2,1.7674023E2,3.4140436E2,1.4157959E2,5.2477295E1,9.2277374E1,2.4775111E2,8.7888336E1,6.146582E1,0E0,9.1308594E-2,3.4831253E1,4.7773193E1,0E0,4.166092E1,1.79063E2,5.5890545E1,5.5329834E1,4.124341E1,0E0,0E0,9.369537E0,0E0,0E0,0E0,8.431778E-1,3.9372147E1,0E0,2.9294846E1,1.0165045E2,0E0,0E0,4.1787354E1,0E0,0E0,3.1941406E1,0E0,7.1367065E1,1.0393912E1,0E0,0E0,0E0,0E0,0E0,0E0,0E0,0E0,0E0,0E0,0E0,0E0,0E0,0E0,0E0],"parents":[2147483647,0,0,1,1,2,2,3,3,4,4,5,5,6,6,7,7,8,8,9,9,11,11,12,12,13,13,15,15,16,16,17,17,18,18,19,19,22,22,26,26,27,27,29,29,30,30,33,33,36,36,38,38,39,39],"right_children":[2,4,6,8,10,12,14,16,18,20,-1,22,24,26,-1,28,30,32,34,36,-1,-1,38,-1,-1,-1,40,42,-1,44,46,-1,-1,48,-1,-1,50,-1,52,54,-1,-1,-1,-1,-1,-1,-1,-1,-1,-1,-1,-1,-1,-1,-1],"split_conditions":[-4.5033917E-1,-4.0433925E-2,9.09111E-1,7.023488E-1,-5.0703126E-1,2.014881E0,-6.171171E-1,1.894763E-1,-1.3181316E0,-3.4270096E-1,-5.226853E-2,1.5016029E0,2.050802E0,4.8366493E-1,-5.2532017E-2,-2.1564226E0,2.5975847E-1,-7.535164E-1,9.003985E-1,-1.2467256E0,-4.9443927E-2,-5.518472E-2,6.01965E-1,5.1011924E-2,-4.7063638E-2,-4.681507E-2,-6.3505113E-1,-2.259293E0,-5.507712E-2,-5.4727805E-1,-6.717111E-1,4.196807E-2,-5.3497996E-2,-4.6854153E-1,-4.9295247E-2,-4.4183098E-2,2.6739116E0,-5.497947E-2,6.164151E-1,-6.9250745E-1,5.223816E-2,-4.82842E-2,4.797443E-2,-7.463693E-3,-5.4742113E-2,1.746554E-2,-2.0358823E-2,3.8606673E-2,-1.0992226E-2,4.0362407E-2,5.0784186E-2,4.2847563E-2,-5.4582134E-2,4.4777013E-2,-3.173124E-2],"split_indices":[27,15,22,24,9,20,9,5,27,19,0,28,20,8,0,5,20,14,3,23,0,0,10,0,0,0,19,18,0,20,9,0,0,12,0,0,6,0,10,1,0,0,0,0,0,0,0,0,0,0,0,0,0,0,0],"split_type":[0,0,0,0,0,0,0,0,0,0,0,0,0,0,0,0,0,0,0,0,0,0,0,0,0,0,0,0,0,0,0,0,0,0,0,0,0,0,0,0,0,0,0,0,0,0,0,0,0,0,0,0,0,0,0],"sum_hessian":[3.3258745E3,2.1137522E3,1.2121223E3,8.457343E2,1.2680178E3,1.1624895E3,4.963276E1,5.4146796E2,3.0426633E2,1.2555748E3,1.244296E1,1.151158E3,1.1331623E1,3.3235214E1,1.6397545E1,1.1886852E2,4.2259946E2,2.4234426E1,2.800319E2,1.2503444E3,5.230447E0,9.836247E2,1.6753326E2,6.59745E0,4.734173E0,4.9733915E0,2.8261824E1,1.3307517E1,1.05561005E2,6.803008E1,3.5456937E2,7.065392E0,1.7169035E1,2.7379868E2,6.2332153E0,3.7310357E0,1.2466134E3,1.2538118E2,4.2152077E1,8.05331E0,2.0208513E1,6.460244E0,6.8472733E0,1.5582551E1,5.2447533E1,2.7197375E2,8.2595604E1,2.5796732E2,1.5831388E1,4.3958502E2,8.070284E2,7.565235E0,3.458684E1,6.8084517E0,1.244859E0],"tree_param":{"num_deleted":"0","num_feature":"30","num_nodes":"55","size_leaf_vector":"1"}},{"base_weights":[1.6868832E-2,9.339786E-1,-1.5601085E0,8.5521884E-2,1.4732037E0,-1.6897285E0,6.059674E-1,-1.1257665E0,3.3952028E-1,1.5061532E0,-5.1113516E-2,-1.7301093E0,9.7735405E-1,1.2996659E0,-5.1087134E-2,6.6047573E-1,-1.5883366E0,5.554223E-1,-5.480387E-1,1.0923238E0,1.5937892E0,-8.681923E-1,-1.7500246E0,-4.3267824E-2,4.9484223E-2,1.6235753E0,-4.5634065E-2,1.3355798E0,-4.7984067E-2,6.565539E-1,-5.413189E-2,1.2878883E0,2.6604313E-1,7.42905E-1,-1.2926743E0,-5.286599E-2,1.2200924E0,1.6025707E0,-4.0182248E-2,4.372353E-2,-5.1642943E-2,-5.3840213E-2,-1.6501182E0,9.973944E-1,5.1591E-2,5.1154535E-2,-3.98235E-2,5.1848598E-2,-4.2715553E-2,4.2148452E-2,-4.9397446E-2,-3.04904E-2,1.8318994E-2,4.786254E-2,-5.135022E-2,-5.6473523E-2,5.7557924E-3,3.9034072E-2,-5.321255E-2,-3.9175928E-2,4.8277155E-2,8.1598405E-3,-5.1553503E-2,-3.4335382E-2,4.721986E-2],"categories":[],"categories_nodes":[],"categories_segments":[],"categories_sizes":[],"default_left":[0,0,0,0,0,0,0,0,0,0,0,0,0,0,0,0,0,0,0,0,0,0,0,0,0,0,0,0,0,0,0,0,0,0,0,0,0,0,0,0,0,0,0,0,0,0,0,0,0,0,0,0,0,0,0,0,0,0,0,0,0,0,0,0,0],"id":4,"left_children":[1,3,5,7,9,11,13,15,17,19,-1,21,23,25,-1,27,29,31,33,35,37,39,41,-1,-1,43,-1,45,-1,47,-1,49,51,53,55,-1,57,59,-1,-1,-1,-1,61,63,-1,-1,-1,-1,-1,-1,-1,-1,-1,-1,-1,-1,-1,-1,-1,-1,-1,-1,-1,-1,-1],"loss_changes":[4.8906045E3,9.780725E2,3.501421E2,2.563236E2,1.39406E2,1.2807593E2,1.1584094E2,1.20388916E2,1.3222903E2,4.5199463E1,0E0,1.8330322E1,3.1881788E1,5.28323E1,0E0,4.8541183E1,5.6971863E1,1.1713527E2,1.3093018E2,8.58071E1,2.9602783E1,5.826792E1,2.0756836E0,0E0,0E0,1.2899323E0,0E0,2.584888E1,0E0,2.6610563E1,0E0,5.6140503E1,1.7673796E2,1.0755611E2,7.5754486E1,0E0,5.5720184E1,2.2720703E1,0E0,0E0,0E0,0E0,4.790985E1,1.2947692E1,0E0,0E0,0E0,0E0,0E0,0E0,0E0,0E0,0E0,0E0,0E0,0E0,0E0,0E0,0E0,0E0,0E0,0E0,0E0,0E0,0E0],"parents":[2147483647,0,0,1,1,2,2,3,3,4,4,5,5,6,6,7,7,8,8,9,9,11,11,12,12,13,13,15,15,16,16,17,17,18,18,19,19,20,20,21,21,22,22,25,25,27,27,29,29,31,31,32,32,33,33,34,34,36,36,37,37,42,42,43,43],"right_children":[2,4,6,8,10,12,14,16,18,20,-1,22,24,26,-1,28,30,32,34,36,38,40,42,-1,-1,44,-1,46,-1,48,-1,50,52,54,56,-1,58,60,-1,-1,-1,-1,62,64,-1,-1,-1,-1,-1,-1,-1,-1,-1,-1,-1,-1,-1,-1,-1,-1,-1,-1,-1,-1,-1],"split_conditions":[-4.5033917E-1,-4.0433925E-2,9.09111E-1,2.5975847E-1,-5.0703126E-1,2.014881E0,-1.6763154E-1,-4.6841685E-2,-5.910338E-1,1.6875114E0,-5.1113516E-2,-1.2118049E0,-9.3257174E-2,-5.826829E-1,-5.1087134E-2,-6.403741E-1,-1.2366986E0,-3.3926582E-1,6.227954E-1,-2.6914934E-3,-3.4270096E-1,-8.034373E-1,-2.1675202E-1,-4.3267824E-2,4.9484223E-2,-6.854423E-1,-4.5634065E-2,2.3955375E-1,-4.7984067E-2,1.7782712E-1,-5.413189E-2,-4.721454E-1,9.6893764E-1,-9.8956716E-1,-4.1131463E-2,-5.286599E-2,8.8687915E-1,-6.425589E-1,-4.0182248E-2,4.372353E-2,-5.1642943E-2,-5.3840213E-2,-2.1017694E-1,-1.9515203E-1,5.1591E-2,5.1154535E-2,-3.98235E-2,5.1848598E-2,-4.2715553E-2,4.2148452E-2,-4.9397446E-2,-3.04904E-2,1.8318994E-2,4.786254E-2,-5.135022E-2,-5.6473523E-2,5.7557924E-3,3.9034072E-2,-5.321255E-2,-3.9175928E-2,4.8277155E-2,8.1598405E-3,-5.1553503E-2,-3.4335382E-2,4.721986E-2],"split_indices":[27,15,22,20,9,20,3,0,9,6,0,13,9,19,0,9,13,22,20,7,19,9,20,0,0,19,0,23,0,3,0,19,20,13,21,0,3,14,0,0,0,0,20,3,0,0,0,0,0,0,0,0,0,0,0,0,0,0,0,0,0,0,0,0,0],"split_type":[0,0,0,0,0,0,0,0,0,0,0,0,0,0,0,0,0,0,0,0,0,0,0,0,0,0,0,0,0,0,0,0,0,0,0,0,0,0,0,0,0,0,0,0,0,0,0,0,0,0,0,0,0,0,0,0,0,0,0,0,0,0,0,0,0],"sum_hessian":[3.379542E3,2.1370962E3,1.2424458E3,8.3088257E2,1.3062137E3,1.1725021E3,6.994369E1,1.4343341E2,6.8744916E2,1.293326E3,1.288762E1,1.1553607E3,1.7141382E1,5.4120373E1,1.58233185E1,2.9415567E1,1.1401784E2,5.5324457E2,1.3420459E2,2.2837419E2,1.0649519E3,2.7099672E1,1.128261E3,3.4773116E0,1.366407E1,4.8926613E1,5.1937594E0,2.2964499E1,6.4510694E0,9.831234E0,1.041866E2,1.5569772E2,3.9754684E2,4.909425E1,8.511034E1,9.23606E0,2.1913812E2,1.0622255E3,2.7264695E0,7.083712E0,2.001596E1,7.680481E2,3.6021295E2,8.0251E0,4.0901512E1,2.0481764E1,2.4827347E0,6.600305E0,3.2309294E0,1.5022621E2,5.47151E0,8.378648E1,3.1376035E2,3.6698364E1,1.2395884E1,6.0719585E1,2.4390753E1,2.139129E2,5.225222E0,1.9840007E0,1.0602415E3,1.2263777E1,3.4794916E2,1.4932344E0,6.5318656E0],"tree_param":{"num_deleted":"0","num_feature":"30","num_nodes":"65","size_leaf_vector":"1"}},{"base_weights":[3.8751923E-2,9.3095005E-1,-1.5778095E0,1.9086161E-1,1.4371823E0,-1.6700035E0,4.5986253E-1,4.7663617E-1,-9.778055E-1,1.4559098E0,-4.8861504E-2,-1.7098318E0,8.7396383E-1,1.1502178E0,-4.966308E-2,-6.606123E-1,7.68092E-1,-1.0929326E0,4.8964206E-2,1.4675822E0,-4.7550227E-2,-1.5774492E0,-5.2632835E-2,4.6433117E-2,-4.3142308E-2,-4.4256732E-2,1.5308461E0,-5.4615825E-2,1.8090186E-1,4.3496007E-1,1.1883787E0,1.5087889E-2,-1.4384583E0,8.8689023E-1,1.5206085E0,-1.6623297E0,5.757282E-2,1.6501049E0,-3.0524138E-2,-5.232459E-2,1.8387826E-2,3.1652644E-2,-1.289224E-2,2.3933128E-2,4.5492467E-2,2.7400598E-2,-5.073751E-2,-8.303606E-3,-5.468523E-2,3.6978927E-2,-5.6936216E-2,4.152168E-2,4.929084E-2,-1.8697487E-2,-5.2550085E-2,5.3079903E-2,3.2830287E-2],"categories":[],"categories_nodes":[],"categories_segments":[],"categories_sizes":[],"default_left":[0,0,0,0,0,0,0,0,0,0,0,0,0,0,0,0,0,0,0,0,0,0,0,0,0,0,0,0,0,0,0,0,0,0,0,0,0,0,0,0,0,0,0,0,0,0,0,0,0,0,0,0,0,0,0,0,0],"id":5,"left_children":[1,3,5,7,9,11,13,15,17,19,-1,21,23,25,-1,27,29,31,-1,33,-1,35,-1,-1,-1,-1,37,-1,39,41,43,45,47,49,51,53,-1,55,-1,-1,-1,-1,-1,-1,-1,-1,-1,-1,-1,-1,-1,-1,-1,-1,-1,-1,-1],"loss_changes":[4.9290293E3,8.247544E2,2.2909155E2,2.995751E2,7.74436E1,1.1933081E2,7.987522E1,2.3925737E2,5.47574E1,4.8471924E1,0E0,3.994629E0,3.1184757E1,4.3076168E1,0E0,1.4428189E2,7.982471E1,6.4895584E1,0E0,3.8546143E1,0E0,9.17926E1,0E0,0E0,0E0,0E0,1.2669685E1,0E0,7.29093E1,1.7294585E2,3.1226654E1,6.480103E1,5.7177765E1,1.0902898E2,1.7549072E1,2.601471E1,0E0,3.7818146E-1,0E0,0E0,0E0,0E0,0E0,0E0,0E0,0E0,0E0,0E0,0E0,0E0,0E0,0E0,0E0,0E0,0E0,0E0,0E0],"parents":[2147483647,0,0,1,1,2,2,3,3,4,4,5,5,6,6,7,7,8,8,9,9,11,11,12,12,13,13,15,15,16,16,17,17,19,19,21,21,26,26,28,28,29,29,30,30,31,31,32,32,33,33,34,34,35,35,37,37],"right_children":[2,4,6,8,10,12,14,16,18,20,-1,22,24,26,-1,28,30,32,-1,34,-1,36,-1,-1,-1,-1,38,-1,40,42,44,46,48,50,52,54,-1,56,-1,-1,-1,-1,-1,-1,-1,-1,-1,-1,-1,-1,-1,-1,-1,-1,-1,-1,-1],"split_conditions":[-4.5033917E-1,-4.0433925E-2,2.128431E-1,-5.1092005E-1,-2.885764E-1,2.014881E0,-6.258031E-1,-1.3181316E0,1.1075577E0,-2.4563353E-1,-4.8861504E-2,-6.596978E-1,2.1973345E0,-4.9698973E-1,-4.966308E-2,-6.848785E-1,-5.4512795E-2,-6.57506E-1,4.8964206E-2,3.2975557E-1,-4.7550227E-2,1.4051101E0,-5.2632835E-2,4.6433117E-2,-4.3142308E-2,-4.4256732E-2,-5.6316996E-1,-5.4615825E-2,-3.5743383E-3,-3.456628E-1,5.486185E-1,5.187828E-1,-1.0932181E0,-6.6097915E-1,1.1212678E0,-1.819106E-1,5.757282E-2,4.1553292E-1,-3.0524138E-2,-5.232459E-2,1.8387826E-2,3.1652644E-2,-1.289224E-2,2.3933128E-2,4.5492467E-2,2.7400598E-2,-5.073751E-2,-8.303606E-3,-5.468523E-2,3.6978927E-2,-5.6936216E-2,4.152168E-2,4.929084E-2,-1.8697487E-2,-5.2550085E-2,5.3079903E-2,3.2830287E-2],"split_indices":[27,15,15,1,19,20,19,27,2,25,0,4,20,13,0,25,11,16,0,5,0,3,0,0,0,0,12,0,16,2,8,19,13,1,11,3,0,21,0,0,0,0,0,0,0,0,0,0,0,0,0,0,0,0,0,0,0],"split_type":[0,0,0,0,0,0,0,0,0,0,0,0,0,0,0,0,0,0,0,0,0,0,0,0,0,0,0,0,0,0,0,0,0,0,0,0,0,0,0,0,0,0,0,0,0,0,0,0,0,0,0,0,0,0,0,0,0],"sum_hessian":[3.4154766E3,2.201093E3,1.2143835E3,8.9460236E2,1.3064907E3,1.16199E3,5.2393623E1,7.193031E2,1.7529927E2,1.2990806E3,7.4101043E0,1.1444011E3,1.758882E1,3.98457E1,1.2547925E1,1.464795E2,5.728236E2,1.6845003E2,6.8492393E0,1.2946287E3,4.4519687E0,2.975374E2,8.468637E2,1.387557E1,3.7132492E0,4.6811295E0,3.516457E1,6.1099117E1,8.5380394E1,3.206788E2,2.5214478E2,4.0269966E1,1.2818005E2,1.0981104E2,1.1848176E3,2.9099786E2,6.539552E0,3.3929188E1,1.2353814E0,1.5092567E1,7.028783E1,1.8662144E2,1.3405736E2,1.1666212E2,1.3548265E2,2.6686274E1,1.358369E1,3.2296005E1,9.5884056E1,9.817905E1,1.1631995E1,5.658958E2,6.189218E2,2.367054E1,2.6732733E2,2.6138248E1,7.79094E0],"tree_param":{"num_deleted":"0","num_feature":"30","num_nodes":"57","size_leaf_vector":"1"}},{"base_weights":[2.8961685E-2,8.993E-1,-1.5031614E0,3.1469512E-1,1.4942364E0,-1.6105877E0,4.868735E-1,5.7885516E-1,-6.421852E-1,1.5110258E0,-4.517443E-2,-1.6884806E0,-1.199623E0,1.2035795E0,-4.8880633E-2,-3.4694588E-1,8.2935655E-1,-7.861862E-1,1.1710345E0,-4.3982077E-2,1.5215367E0,-1.5084013E0,-5.1410355E-2,-5.617326E-1,-5.130065E-2,1.540786E0,-4.348614E-2,1.3470815E0,-9.150585E-1,-2.3796077E-1,9.340205E-1,-1.4904243E0,-2.797123E-1,5.343829E-2,-4.1469444E-2,1.5308468E0,-4.0010337E-2,-2.8462386E-1,-5.131246E-2,-5.04247E-2,4.0490654E-1,9.431297E-1,1.6494684E0,-3.7056047E-2,4.4746496E-2,-5.372433E-2,7.856743E-4,2.0172661E-2,-5.5415347E-2,-4.969581E-2,2.9515786E-2,3.710061E-2,-5.28774E-2,1.0061774E-2,-5.4188773E-2,4.0058777E-2,4.840213E-2,-4.8066687E-2,5.9791833E-2,3.0042177E-2,-4.7756203E-2,-3.2833263E-2,4.4886965E-2,5.2720904E-2,3.3110257E-2],"categories":[],"categories_nodes":[],"categories_segments":[],"categories_sizes":[],"default_left":[0,0,0,0,0,0,0,0,0,0,0,0,0,0,0,0,0,0,0,0,0,0,0,0,0,0,0,0,0,0,0,0,0,0,0,0,0,0,0,0,0,0,0,0,0,0,0,0,0,0,0,0,0,0,0,0,0,0,0,0,0,0,0,0,0],"id":6,"left_children":[1,3,5,7,9,11,13,15,17,19,-1,21,23,25,-1,27,29,31,33,-1,35,37,-1,39,-1,41,-1,43,45,47,49,51,53,-1,-1,55,-1,57,-1,-1,59,61,63,-1,-1,-1,-1,-1,-1,-1,-1,-1,-1,-1,-1,-1,-1,-1,-1,-1,-1,-1,-1,-1,-1],"loss_changes":[4.477163E3,7.442396E2,2.6081592E2,2.7367535E2,5.57146E1,3.492456E1,9.7613525E1,1.9691586E2,6.2120888E1,3.5260742E1,0E0,1.8068848E0,6.004373E1,4.4895416E1,0E0,1.7567682E2,7.479825E1,7.7247025E1,2.995864E1,0E0,3.0014893E1,3.0949493E1,0E0,9.238487E1,0E0,1.2239532E0,0E0,1.8975426E1,1.1242688E2,8.975174E1,8.015106E1,6.961334E1,1.2069136E2,0E0,0E0,1.4787109E1,0E0,6.0862698E1,0E0,0E0,5.6730026E1,1.1689921E1,1.14097595E-1,0E0,0E0,0E0,0E0,0E0,0E0,0E0,0E0,0E0,0E0,0E0,0E0,0E0,0E0,0E0,0E0,0E0,0E0,0E0,0E0,0E0,0E0],"parents":[2147483647,0,0,1,1,2,2,3,3,4,4,5,5,6,6,7,7,8,8,9,9,11,11,12,12,13,13,15,15,16,16,17,17,18,18,20,20,21,21,23,23,25,25,27,27,28,28,29,29,30,30,31,31,32,32,35,35,37,37,40,40,41,41,42,42],"right_children":[2,4,6,8,10,12,14,16,18,20,-1,22,24,26,-1,28,30,32,34,-1,36,38,-1,40,-1,42,-1,44,46,48,50,52,54,-1,-1,56,-1,58,-1,-1,60,62,64,-1,-1,-1,-1,-1,-1,-1,-1,-1,-1,-1,-1,-1,-1,-1,-1,-1,-1,-1,-1,-1,-1],"split_conditions":[-4.5033917E-1,1.6875114E0,6.352505E-2,-6.3488317E-1,-5.0703126E-1,1.5016029E0,-5.0703126E-1,-1.3181316E0,3.7224584E0,-6.516449E-1,-4.517443E-2,-1.6107501E-1,-3.502688E-1,-1.6763154E-1,-4.8880633E-2,-5.6641675E-3,-2.8976973E-2,3.9308223E-1,3.5092276E-1,-4.3982077E-2,-3.4270096E-1,-5.0991553E-1,-5.1410355E-2,-3.2415416E-2,-5.130065E-2,8.941917E-2,-4.348614E-2,-6.7984116E-1,1.1544606E-1,-7.9677093E-1,1.8805314E-2,-2.151533E0,6.340657E-1,5.343829E-2,-4.1469444E-2,6.8833494E-1,-4.0010337E-2,-5.2211154E-1,-5.131246E-2,-5.04247E-2,2.8478E-1,3.6603117E0,-5.725467E-1,-3.7056047E-2,4.4746496E-2,-5.372433E-2,7.856743E-4,2.0172661E-2,-5.5415347E-2,-4.969581E-2,2.9515786E-2,3.710061E-2,-5.28774E-2,1.0061774E-2,-5.4188773E-2,4.0058777E-2,4.840213E-2,-4.8066687E-2,5.9791833E-2,3.0042177E-2,-4.7756203E-2,-3.2833263E-2,4.4886965E-2,5.2720904E-2,3.3110257E-2],"split_indices":[27,6,15,9,9,28,9,27,7,23,0,27,19,3,0,0,17,23,18,0,19,2,0,9,0,0,0,1,0,18,5,8,23,0,0,11,0,2,0,0,9,6,3,0,0,0,0,0,0,0,0,0,0,0,0,0,0,0,0,0,0,0,0,0,0],"split_type":[0,0,0,0,0,0,0,0,0,0,0,0,0,0,0,0,0,0,0,0,0,0,0,0,0,0,0,0,0,0,0,0,0,0,0,0,0,0,0,0,0,0,0,0,0,0,0,0,0,0,0,0,0,0,0,0,0,0,0,0,0,0,0,0,0],"sum_hessian":[3.3555261E3,2.1401848E3,1.2153411E3,1.0802365E3,1.0599485E3,1.1532755E3,6.206562E1,8.4684753E2,2.333889E2,1.0545432E3,5.4052873E0,9.669034E2,1.8637207E2,4.668575E1,1.5379869E1,1.8025983E2,6.665877E2,2.1674223E2,1.6646671E1,3.2228901E0,1.0513203E3,1.2615905E2,8.407444E2,8.3773476E1,1.0259859E2,4.1793167E1,4.892583E0,4.4926003E1,1.3533382E2,5.9415985E1,6.0717175E2,8.98565E1,1.2688573E2,1.3679656E1,2.9670157E0,1.0483657E3,2.9546187E0,1.8216234E1,1.0794282E2,3.8482708E1,4.5290764E1,7.919702E0,3.3873466E1,1.9802494E0,4.2945755E1,6.963844E1,6.569537E1,3.8319588E1,2.1096401E1,1.0852252E1,5.9631946E2,7.832056E0,8.2024445E1,9.099957E1,3.588615E1,3.1630566E2,7.3206006E2,1.1728227E1,6.4880075E0,3.5256927E1,1.0033836E1,1.4818795E0,6.437823E0,2.6429014E1,7.444451E0],"tree_param":{"num_deleted":"0","num_feature":"30","num_nodes":"65","size_leaf_vector":"1"}},{"base_weights":[3.13474E-2,8.9084244E-1,-1.4885873E0,1.05364636E-1,1.3852235E0,-1.5951988E0,4.4691193E-1,-2.3312409E-1,7.7432936E-1,1.4171413E0,-4.906596E-2,-1.6142412E0,-8.0142444E-1,1.1938664E0,-4.830929E-2,-1.1274208E0,2.3035517E-2,8.5942066E-1,-4.9054824E-2,-4.387196E-2,1.427017E0,-1.6523314E0,-1.3971438E0,4.237761E-2,-4.860296E-2,-4.1359514E-2,1.4551256E0,4.8550552E-1,-1.4684874E0,-1.0442406E0,2.4024884E-1,9.896744E-1,-2.0260122E-1,1.4344305E0,-4.577689E-2,-1.4616072E0,-5.032799E-2,-5.0221674E-2,-7.315153E-1,1.565838E0,-3.0971298E-2,4.7035243E-2,-4.5415707E-2,1.1929682E-3,-5.1142372E-2,1.1258336E-2,-5.095961E-2,1.4444354E-2,-1.7776819E-2,3.1361666E-2,-4.8141886E-2,-5.348266E-2,2.4336603E-2,3.335711E-2,4.497185E-2,-1.9708388E-2,-5.020208E-2,4.398746E-2,-5.014761E-2,2.5315464E-2,5.1416382E-2],"categories":[],"categories_nodes":[],"categories_segments":[],"categories_sizes":[],"default_left":[0,0,0,0,0,0,0,0,0,0,0,0,0,0,0,0,0,0,0,0,0,0,0,0,0,0,0,0,0,0,0,0,0,0,0,0,0,0,0,0,0,0,0,0,0,0,0,0,0,0,0,0,0,0,0,0,0,0,0,0,0],"id":7,"left_children":[1,3,5,7,9,11,13,15,17,19,-1,21,23,25,-1,27,29,31,-1,-1,33,35,37,-1,-1,-1,39,41,43,45,47,49,51,53,-1,55,-1,-1,57,59,-1,-1,-1,-1,-1,-1,-1,-1,-1,-1,-1,-1,-1,-1,-1,-1,-1,-1,-1,-1,-1],"loss_changes":[4.3826377E3,8.320206E2,2.5076953E2,1.8786542E2,1.291145E2,1.6070557E1,1.0033952E2,1.2628384E2,5.8549484E1,3.910913E1,0E0,6.960205E0,5.4670135E1,3.3971237E1,0E0,6.823277E1,9.979902E1,3.7531464E1,0E0,0E0,3.0602783E1,2.1169434E0,3.0806854E1,0E0,0E0,0E0,1.3640976E1,5.036021E1,3.6258286E1,6.826695E1,7.212772E1,3.6448334E1,5.0006187E1,2.5332031E1,0E0,1.9126953E1,0E0,0E0,1.1160456E2,3.0641632E0,0E0,0E0,0E0,0E0,0E0,0E0,0E0,0E0,0E0,0E0,0E0,0E0,0E0,0E0,0E0,0E0,0E0,0E0,0E0,0E0,0E0],"parents":[2147483647,0,0,1,1,2,2,3,3,4,4,5,5,6,6,7,7,8,8,9,9,11,11,12,12,13,13,15,15,16,16,17,17,20,20,21,21,22,22,26,26,27,27,28,28,29,29,30,30,31,31,32,32,33,33,35,35,38,38,39,39],"right_children":[2,4,6,8,10,12,14,16,18,20,-1,22,24,26,-1,28,30,32,-1,-1,34,36,38,-1,-1,-1,40,42,44,46,48,50,52,54,-1,56,-1,-1,58,60,-1,-1,-1,-1,-1,-1,-1,-1,-1,-1,-1,-1,-1,-1,-1,-1,-1,-1,-1,-1,-1],"split_conditions":[-4.5033917E-1,-4.0433925E-2,6.352505E-2,7.023488E-1,-5.0703126E-1,7.023488E-1,-5.975833E-1,1.894763E-1,6.0278E-1,-5.802256E-1,-4.906596E-2,1.5016029E0,-1.2118049E0,-5.564706E-1,-4.830929E-2,1.1451211E-2,2.5975847E-1,-5.1092005E-1,-4.9054824E-2,-4.387196E-2,-2.4563353E-1,-1.6107501E-1,5.605136E-1,4.237761E-2,-4.860296E-2,-4.1359514E-2,-5.826829E-1,-6.403741E-1,-1.1131419E0,-5.4727805E-1,-7.396033E-1,-6.1095774E-1,5.690074E-1,1.6875114E0,-4.577689E-2,-3.6546454E-1,-5.032799E-2,-5.0221674E-2,6.169494E-1,-6.71221E-1,-3.0971298E-2,4.7035243E-2,-4.5415707E-2,1.1929682E-3,-5.1142372E-2,1.1258336E-2,-5.095961E-2,1.4444354E-2,-1.7776819E-2,3.1361666E-2,-4.8141886E-2,-5.348266E-2,2.4336603E-2,3.335711E-2,4.497185E-2,-1.9708388E-2,-5.020208E-2,4.398746E-2,-5.014761E-2,2.5315464E-2,5.1416382E-2],"split_indices":[27,15,15,24,9,24,9,5,18,26,0,28,13,13,0,0,20,1,0,0,25,27,10,0,0,0,19,9,13,20,27,9,18,6,0,25,0,0,16,1,0,0,0,0,0,0,0,0,0,0,0,0,0,0,0,0,0,0,0,0,0],"split_type":[0,0,0,0,0,0,0,0,0,0,0,0,0,0,0,0,0,0,0,0,0,0,0,0,0,0,0,0,0,0,0,0,0,0,0,0,0,0,0,0,0,0,0,0,0,0,0,0,0,0,0,0,0,0,0,0,0,0,0,0,0],"sum_hessian":[3.3527898E3,2.141963E3,1.2108268E3,8.278613E2,1.3141017E3,1.1477803E3,6.3046448E1,5.501454E2,2.7771594E2,1.3008872E3,1.3214549E1,1.119881E3,2.7899328E1,4.6560513E1,1.6485937E1,1.2173758E2,4.284078E2,2.688643E2,8.85164E0,3.9435782E0,1.2969436E3,9.470997E2,1.7278131E2,7.335593E0,2.0563736E1,3.8983226E0,4.266219E1,2.1175198E1,1.00562386E2,7.1801956E1,3.5660583E2,2.395521E2,2.931221E1,1.2942086E3,2.7349775E0,1.1768245E2,8.2941724E2,1.2094944E2,5.183187E1,4.1199043E1,1.4631455E0,1.3878196E1,7.297001E0,1.3731755E1,8.683063E1,2.2791145E1,4.901081E1,2.7683914E2,7.976671E1,2.351004E2,4.4516845E0,1.11598625E1,1.8152348E1,2.1909079E2,1.0751178E3,2.5375746E1,9.23067E1,1.5360748E1,3.6471127E1,8.150357E0,3.3048687E1],"tree_param":{"num_deleted":"0","num_feature":"30","num_nodes":"61","size_leaf_vector":"1"}},{"base_weights":[2.3496328E-3,8.4265614E-1,-1.4391547E0,4.639924E-2,1.3240471E0,-1.5427428E0,3.2953513E-1,-1.0172062E0,2.768674E-1,1.3553152E0,-4.7949333E-2,-1.5619276E0,7.852363E-1,1.0451603E0,-4.7518466E-2,8.2232505E-1,-1.4753354E0,-7.806558E-1,4.736509E-1,9.174446E-1,1.4555198E0,-1.5810872E0,-6.5539247E-1,4.7758006E-2,-3.6534566E-2,1.3844893E0,-4.2453367E-2,1.4123181E0,-4.356756E-2,-5.0572734E-2,-3.873091E-1,-1.3555791E0,6.925442E-1,-5.887626E-2,5.581254E-1,1.0218982E0,-5.7097726E-2,1.4632903E0,-3.8454898E-2,-1.6190275E0,-1.3602365E0,-4.6768587E-2,8.61495E-1,-3.6228623E-2,1.5178764E0,5.2449755E-2,-3.6448274E-2,4.9575076E-2,-4.6868287E-2,4.8876874E-2,-5.0249312E-2,3.5765827E-2,-5.0529547E-2,3.1040907E-2,4.5539923E-3,-5.0746657E-2,3.3953108E-2,-3.8396213E-2,4.411209E-2,-4.2898245E-2,-4.932727E-2,-4.4737842E-2,4.4794264E-3,5.0521486E-2,-3.6468163E-2,2.6828576E-2,4.9610503E-2],"categories":[],"categories_nodes":[],"categories_segments":[],"categories_sizes":[],"default_left":[0,0,0,0,0,0,0,0,0,0,0,0,0,0,0,0,0,0,0,0,0,0,0,0,0,0,0,0,0,0,0,0,0,0,0,0,0,0,0,0,0,0,0,0,0,0,0,0,0,0,0,0,0,0,0,0,0,0,0,0,0,0,0,0,0,0,0],"id":8,"left_children":[1,3,5,7,9,11,13,15,17,19,-1,21,23,25,-1,27,29,31,33,35,37,39,41,-1,-1,43,-1,45,-1,-1,47,49,51,-1,53,55,-1,57,-1,59,61,-1,63,-1,65,-1,-1,-1,-1,-1,-1,-1,-1,-1,-1,-1,-1,-1,-1,-1,-1,-1,-1,-1,-1,-1,-1],"loss_changes":[3.966752E3,7.9293005E2,2.214624E2,1.9160701E2,1.19976074E2,5.211499E1,9.415081E1,1.1853969E2,1.3403334E2,5.465869E1,0E0,1.8598633E1,1.8062817E1,4.3504284E1,0E0,4.0164825E1,2.4947464E1,8.6606186E1,1.12667725E2,7.276398E1,2.39292E1,7.068115E0,3.5752895E1,0E0,0E0,1.7128403E1,0E0,2.2479649E1,0E0,0E0,4.9124084E1,7.240953E1,3.6512516E1,0E0,1.01459076E2,7.120993E1,0E0,2.2062988E1,0E0,2.125E0,3.3540833E1,0E0,1.915995E1,0E0,2.1217117E0,0E0,0E0,0E0,0E0,0E0,0E0,0E0,0E0,0E0,0E0,0E0,0E0,0E0,0E0,0E0,0E0,0E0,0E0,0E0,0E0,0E0,0E0],"parents":[2147483647,0,0,1,1,2,2,3,3,4,4,5,5,6,6,7,7,8,8,9,9,11,11,12,12,13,13,15,15,16,16,17,17,18,18,19,19,20,20,21,21,22,22,25,25,27,27,30,30,31,31,32,32,34,34,35,35,37,37,39,39,40,40,42,42,44,44],"right_children":[2,4,6,8,10,12,14,16,18,20,-1,22,24,26,-1,28,30,32,34,36,38,40,42,-1,-1,44,-1,46,-1,-1,48,50,52,-1,54,56,-1,58,-1,60,62,-1,64,-1,66,-1,-1,-1,-1,-1,-1,-1,-1,-1,-1,-1,-1,-1,-1,-1,-1,-1,-1,-1,-1,-1,-1],"split_conditions":[-4.5033917E-1,7.011112E-1,7.011112E-1,2.5975847E-1,-5.0703126E-1,2.1410947E0,-1.6763154E-1,-4.6841685E-2,1.030775E-1,1.6875114E0,-4.7949333E-2,2.554021E-1,8.271329E-2,-5.0703126E-1,-4.7518466E-2,-5.0733113E-1,2.7528045E-1,-5.4512795E-2,-7.4863595E-1,7.3404215E-2,-3.4270096E-1,1.5016029E0,5.704038E-1,4.7758006E-2,-3.6534566E-2,-1.03827E0,-4.2453367E-2,2.57566E-1,-4.356756E-2,-5.0572734E-2,-5.4727805E-1,-7.35888E-1,-5.0117787E-2,-5.887626E-2,-4.56863E-1,-1.2639757E-1,-5.7097726E-2,-6.4431834E-1,-3.8454898E-2,-1.6107501E-1,1.4051101E0,-4.6768587E-2,-1.0211912E0,-3.6228623E-2,5.2499473E-2,5.2449755E-2,-3.6448274E-2,4.9575076E-2,-4.6868287E-2,4.8876874E-2,-5.0249312E-2,3.5765827E-2,-5.0529547E-2,3.1040907E-2,4.5539923E-3,-5.0746657E-2,3.3953108E-2,-3.8396213E-2,4.411209E-2,-4.2898245E-2,-4.932727E-2,-4.4737842E-2,4.4794264E-3,5.0521486E-2,-3.6468163E-2,2.6828576E-2,4.9610503E-2],"split_indices":[27,6,6,20,9,20,3,0,18,6,0,11,0,9,0,1,10,11,12,10,19,28,23,0,0,3,0,26,0,0,20,19,23,0,2,7,0,26,0,27,3,0,4,0,10,0,0,0,0,0,0,0,0,0,0,0,0,0,0,0,0,0,0,0,0,0,0],"split_type":[0,0,0,0,0,0,0,0,0,0,0,0,0,0,0,0,0,0,0,0,0,0,0,0,0,0,0,0,0,0,0,0,0,0,0,0,0,0,0,0,0,0,0,0,0,0,0,0,0,0,0,0,0,0,0,0,0,0,0,0,0,0,0,0,0,0,0],"sum_hessian":[3.272773E3,2.0677944E3,1.2049788E3,7.795147E2,1.2882795E3,1.1384312E3,6.654751E1,1.382198E2,6.412949E2,1.275172E3,1.3107595E1,1.1294525E3,8.978672E0,4.876401E1,1.7783495E1,2.7401056E1,1.1081874E2,1.00144875E2,5.4115E2,2.3936398E2,1.035808E3,1.1053468E3,2.4105701E1,6.5471587E0,2.4315128E0,4.3237778E1,5.5262365E0,2.2058483E1,5.342572E0,9.239946E1,1.8419283E1,7.20909E1,2.8053976E1,1.7390352E1,5.237597E2,2.3143155E2,7.9324403E0,1.0333401E3,2.4679248E0,9.378936E2,1.6745322E2,1.5089593E1,9.016109E0,1.7219337E0,4.1515842E1,1.9853865E1,2.2046177E0,6.5835066E0,1.1835777E1,6.5721855E0,6.5518715E1,2.3592844E1,4.4611316E0,2.403322E2,2.8342752E2,8.446136E0,2.2298541E2,2.20961E0,1.0311305E3,1.1714326E2,8.2075037E2,1.5409068E2,1.33625345E1,6.5940313E0,2.4220784E0,8.780953E0,3.273489E1],"tree_param":{"num_deleted":"0","num_feature":"30","num_nodes":"67","size_leaf_vector":"1"}},{"base_weights":[-2.4860855E-3,8.2502824E-1,-1.446284E0,4.4971276E-2,1.3208755E0,-1.5343302E0,3.5958958E-1,-1.470853E0,3.1256157E-1,1.3477215E0,-4.65902E-2,-1.5734687E0,7.9955065E-1,1.1315712E0,-4.625741E-2,3.709249E-1,-4.975629E-2,4.7017336E-1,-1.0412415E0,-4.473944E-2,1.3595835E0,-1.4422164E0,-4.851801E-2,4.4483677E-2,-4.110703E-2,-3.976256E-2,1.4281003E0,-4.205069E-2,4.4829205E-2,1.3145992E-1,9.604336E-1,3.0385822E-1,-5.2336026E-2,-4.6178505E-2,1.3688788E0,-1.5238303E0,8.038627E-1,1.5357713E0,-2.7892387E-2,-5.19638E-2,1.1120522E-2,-4.8279032E-2,3.1212565E-2,-4.7266614E-2,4.699716E-2,3.458713E-2,4.4374287E-2,-4.845069E-2,-2.5598856E-2,-3.6781155E-2,5.36185E-2,2.6220955E-2,5.080564E-2],"categories":[],"categories_nodes":[],"categories_segments":[],"categories_sizes":[],"default_left":[0,0,0,0,0,0,0,0,0,0,0,0,0,0,0,0,0,0,0,0,0,0,0,0,0,0,0,0,0,0,0,0,0,0,0,0,0,0,0,0,0,0,0,0,0,0,0,0,0,0,0,0,0],"id":9,"left_children":[1,3,5,7,9,11,13,15,17,19,-1,21,23,25,-1,27,-1,29,31,-1,33,35,-1,-1,-1,-1,37,-1,-1,39,41,43,-1,-1,45,47,49,51,-1,-1,-1,-1,-1,-1,-1,-1,-1,-1,-1,-1,-1,-1,-1],"loss_changes":[3.861582E3,7.9461206E2,1.8778345E2,3.247434E2,9.900073E1,1.0383765E2,8.329302E1,4.214273E1,1.4565839E2,4.3954346E1,0E0,4.019043E0,3.0472952E1,3.1100315E1,0E0,2.5845676E1,0E0,1.0118338E2,6.794017E1,0E0,3.552832E1,5.3591187E1,0E0,0E0,0E0,0E0,1.0631462E1,0E0,0E0,1.6201276E2,5.287854E1,6.2550297E1,0E0,0E0,2.775E1,1.5498596E1,2.3492825E1,2.178337E0,0E0,0E0,0E0,0E0,0E0,0E0,0E0,0E0,0E0,0E0,0E0,0E0,0E0,0E0,0E0],"parents":[2147483647,0,0,1,1,2,2,3,3,4,4,5,5,6,6,7,7,8,8,9,9,11,11,12,12,13,13,15,15,17,17,18,18,20,20,21,21,26,26,29,29,30,30,31,31,34,34,35,35,36,36,37,37],"right_children":[2,4,6,8,10,12,14,16,18,20,-1,22,24,26,-1,28,-1,30,32,-1,34,36,-1,-1,-1,-1,38,-1,-1,40,42,44,-1,-1,46,48,50,52,-1,-1,-1,-1,-1,-1,-1,-1,-1,-1,-1,-1,-1,-1,-1],"split_conditions":[-4.5033917E-1,-4.0433925E-2,9.09111E-1,2.5975847E-1,-5.0703126E-1,2.014881E0,-5.975833E-1,-7.8585304E-2,-4.010363E-1,-5.784344E-1,-4.65902E-2,-6.596978E-1,2.1069773E-1,-5.564706E-1,-4.625741E-2,-8.196001E-2,-4.975629E-2,-5.4512795E-2,5.1747495E-1,-4.473944E-2,-2.261666E-1,-6.660093E-1,-4.851801E-2,4.4483677E-2,-4.110703E-2,-3.976256E-2,-5.826829E-1,-4.205069E-2,4.4829205E-2,1.7723788E-1,-1.3181316E0,4.8029944E-1,-5.2336026E-2,-4.6178505E-2,2.6739116E0,-5.1992655E-1,1.5016029E0,-6.71221E-1,-2.7892387E-2,-5.19638E-2,1.1120522E-2,-4.8279032E-2,3.1212565E-2,-4.7266614E-2,4.699716E-2,3.458713E-2,4.4374287E-2,-4.845069E-2,-2.5598856E-2,-3.6781155E-2,5.36185E-2,2.6220955E-2,5.080564E-2],"split_indices":[27,15,22,20,9,20,9,0,12,14,0,4,0,13,0,0,0,11,20,0,10,4,0,0,0,0,19,0,0,23,27,20,0,0,6,21,28,1,0,0,0,0,0,0,0,0,0,0,0,0,0,0,0],"split_type":[0,0,0,0,0,0,0,0,0,0,0,0,0,0,0,0,0,0,0,0,0,0,0,0,0,0,0,0,0,0,0,0,0,0,0,0,0,0,0,0,0,0,0,0,0,0,0,0,0,0,0,0,0],"sum_hessian":[3.2300903E3,2.053534E3,1.1765564E3,7.984768E2,1.255057E3,1.122003E3,5.4553387E1,1.19131805E2,6.7934503E2,1.2439677E3,1.10893135E1,1.1038182E3,1.8184856E1,3.908882E1,1.5464563E1,1.0927306E1,1.08204506E2,6.090869E2,7.0258095E1,4.6569695E0,1.2393107E3,2.846682E2,8.1914996E2,1.40707655E1,4.1140914E0,3.8358502E0,3.525297E1,4.142695E0,6.784611E0,3.609678E2,2.481191E2,2.4317335E1,4.594076E1,3.4351134E0,1.2358756E3,2.7499744E2,9.670798E0,3.404688E1,1.2060924E0,4.0355186E1,3.2061264E2,6.912645E0,2.4120645E2,9.6727495E0,1.4644586E1,4.2158035E2,8.142952E2,2.408353E2,3.4162125E1,3.0756238E0,6.595175E0,7.813016E0,2.6233864E1],"tree_param":{"num_deleted":"0","num_feature":"30","num_nodes":"53","size_leaf_vector":"1"}},{"base_weights":[9.042037E-3,-8.6354226E-1,1.2192453E0,-1.2803955E0,3.481473E-1,1.2586125E0,-4.7092397E-2,-1.4762795E0,-7.6220053E-1,6.4647466E-1,-9.484624E-1,1.283373E0,-4.7372676E-2,-1.4984882E0,6.122643E-2,3.5600972E-1,-1.1146348E0,-3.46106E-1,8.3274317E-1,-1.4209732E0,4.4698156E-2,1.0407108E0,1.449332E0,-1.5201126E0,7.1864106E-2,-4.2059444E-2,4.4034187E-2,-6.276954E-1,1.2484192E0,1.2210788E0,-1.2466754E0,-5.670907E-2,5.5694234E-1,1.2754805E0,5.2456194E-1,5.2911645E-1,-5.248517E-2,2.1872781E-1,1.2100903E0,1.4578199E0,-3.7922718E-2,-4.1762307E-2,-4.7725182E-2,3.8623434E-2,-4.2808335E-2,-5.1491633E-2,4.558619E-2,4.5418885E-2,-4.0659074E-2,4.8716363E-2,-3.4998912E-2,-1.2353987E-2,-4.4070322E-2,-4.74347E-2,2.965833E-2,4.2084277E-2,-5.087184E-2,-5.563617E-2,2.0145725E-2,5.309494E-2,-4.2327605E-2,-6.1993904E-2,2.2075612E-2,3.684269E-2,-5.150501E-2,-3.337084E-2,4.3923795E-2],"categories":[],"categories_nodes":[],"categories_segments":[],"categories_sizes":[],"default_left":[0,0,0,0,0,0,0,0,0,0,0,0,0,0,0,0,0,0,0,0,0,0,0,0,0,0,0,0,0,0,0,0,0,0,0,0,0,0,0,0,0,0,0,0,0,0,0,0,0,0,0,0,0,0,0,0,0,0,0,0,0,0,0,0,0,0,0],"id":10,"left_children":[1,3,5,7,9,11,-1,13,15,17,19,21,-1,23,25,27,29,31,33,35,-1,37,39,41,43,-1,-1,45,47,49,51,-1,53,55,57,59,-1,61,63,65,-1,-1,-1,-1,-1,-1,-1,-1,-1,-1,-1,-1,-1,-1,-1,-1,-1,-1,-1,-1,-1,-1,-1,-1,-1,-1,-1],"loss_changes":[3.4012393E3,9.457268E2,1.5013025E2,1.4023804E2,1.8621608E2,9.5556885E1,0E0,3.456421E1,1.5176802E2,7.251781E1,1.0599092E2,5.165796E1,0E0,3.390503E1,3.3620853E1,8.225453E1,9.166785E1,8.8118324E1,4.4252716E1,4.963719E1,0E0,7.488068E1,1.984082E1,6.6757812E0,2.8206629E1,0E0,0E0,1.0735971E2,3.5927345E1,1.7421934E1,5.0839874E1,0E0,3.8637085E1,5.3232956E1,6.970906E1,3.0731983E1,0E0,1.1193781E2,2.5673157E1,1.426355E1,0E0,0E0,0E0,0E0,0E0,0E0,0E0,0E0,0E0,0E0,0E0,0E0,0E0,0E0,0E0,0E0,0E0,0E0,0E0,0E0,0E0,0E0,0E0,0E0,0E0,0E0,0E0],"parents":[2147483647,0,0,1,1,2,2,3,3,4,4,5,5,7,7,8,8,9,9,10,10,11,11,13,13,14,14,15,15,16,16,17,17,18,18,19,19,21,21,22,22,23,23,24,24,27,27,28,28,29,29,30,30,32,32,33,33,34,34,35,35,37,37,38,38,39,39],"right_children":[2,4,6,8,10,12,-1,14,16,18,20,22,-1,24,26,28,30,32,34,36,-1,38,40,42,44,-1,-1,46,48,50,52,-1,54,56,58,60,-1,62,64,66,-1,-1,-1,-1,-1,-1,-1,-1,-1,-1,-1,-1,-1,-1,-1,-1,-1,-1,-1,-1,-1,-1,-1,-1,-1,-1,-1],"split_conditions":[1.8177651E-1,9.6893764E-1,-3.8083243E-1,8.3171055E-2,-5.3594357E-1,2.6146403E-1,-4.7092397E-2,3.7224584E0,-1.072421E0,1E-5,1.5542005E0,6.8833494E-1,-4.7372676E-2,6.8833494E-1,9.528495E-1,-8.9898914E-1,-7.35888E-1,-6.675724E-1,-5.5086154E-1,-7.103192E-1,4.4698156E-2,9.019247E-1,-3.502688E-1,-2.885868E-1,-6.4906186E-1,-4.2059444E-2,4.4034187E-2,5.797272E-1,-2.6815793E-1,3.9996827E-1,-1.2603584E-1,-5.670907E-2,-2.2222279E-1,-6.380694E-1,3.2975557E-1,1.833401E-1,-5.248517E-2,-7.3717314E-1,1.585298E0,-1.0905069E0,-3.7922718E-2,-4.1762307E-2,-4.7725182E-2,3.8623434E-2,-4.2808335E-2,-5.1491633E-2,4.558619E-2,4.5418885E-2,-4.0659074E-2,4.8716363E-2,-3.4998912E-2,-1.2353987E-2,-4.4070322E-2,-4.74347E-2,2.965833E-2,4.2084277E-2,-5.087184E-2,-5.563617E-2,2.0145725E-2,5.309494E-2,-4.2327605E-2,-6.1993904E-2,2.2075612E-2,3.684269E-2,-5.150501E-2,-3.337084E-2,4.3923795E-2],"split_indices":[22,20,12,20,1,10,0,7,13,29,11,11,0,11,25,21,19,1,2,10,0,20,19,22,20,0,0,25,12,5,10,0,8,25,5,1,0,12,8,23,0,0,0,0,0,0,0,0,0,0,0,0,0,0,0,0,0,0,0,0,0,0,0,0,0,0,0],"split_type":[0,0,0,0,0,0,0,0,0,0,0,0,0,0,0,0,0,0,0,0,0,0,0,0,0,0,0,0,0,0,0,0,0,0,0,0,0,0,0,0,0,0,0,0,0,0,0,0,0,0,0,0,0,0,0,0,0,0,0,0,0,0,0,0,0,0,0],"sum_hessian":[3.2188604E3,1.8704846E3,1.3483757E3,1.39166E3,4.7882455E2,1.3301492E3,1.8226633E1,1.0085623E3,3.8309772E2,3.8966974E2,8.9154816E1,1.3191863E3,1.096285E1,9.9422644E2,1.4335858E1,9.180544E1,2.9129227E2,6.143566E1,3.2823407E2,7.503237E1,1.4122442E1,5.387325E2,7.804538E2,9.8075305E2,1.3473415E1,7.02809E0,7.3077683E0,4.3810097E1,4.7995346E1,1.5144688E1,2.7614758E2,2.2266722E1,3.9168938E1,1.3342097E2,1.948131E2,1.0730166E1,6.430221E1,9.2436775E1,4.4629572E2,7.784814E2,1.9724606E0,3.5634644E2,6.244066E2,7.5174956E0,5.95592E0,2.9203814E1,1.4606281E1,4.3933296E1,4.06205E0,1.3232329E1,1.9123578E0,5.8674694E1,2.1747289E2,6.1322727E0,3.3036667E1,1.2844446E2,4.976518E0,1.0657924E1,1.8415518E2,6.5981646E0,4.132002E0,1.6504953E1,7.593182E1,4.4414484E2,2.1508858E0,1.4762727E0,7.7700507E2],"tree_param":{"num_deleted":"0","num_feature":"30","num_nodes":"67","size_leaf_vector":"1"}},{"base_weights":[5.3863507E-2,8.193255E-1,-1.3531733E0,1.2854436E-1,1.2813472E0,-1.4229988E0,9.3611985E-1,-9.4163734E-1,3.346058E-1,1.3093681E0,-4.5320556E-2,-1.4742664E0,-7.849774E-2,1.2329443E0,-3.8640086E-2,8.7002146E-1,-1.3858168E0,5.113431E-1,-5.2116853E-1,-4.1905843E-2,1.3183581E0,-1.4933678E0,-6.793228E-1,8.747385E-1,-4.556061E-2,-3.3995286E-2,1.4471066E0,-4.155379E-2,1.4290532E0,-4.7849994E-2,-3.602628E-1,5.8640945E-1,-9.706244E-1,-4.909832E-2,-5.2847005E-2,1.1826464E0,1.4845546E0,-1.5327433E0,-1.2681803E0,8.366993E-1,-4.4870786E-2,-4.1263662E-2,1.3574858E0,8.91669E-1,4.8909366E-2,-3.1586256E-2,5.029499E-2,4.493982E-2,-4.460672E-2,1.906261E-2,-5.1549066E-2,-5.4258358E-2,4.883895E-2,-2.3682557E-2,3.977228E-2,3.6023166E-2,-4.7774326E-2,2.0149767E-2,4.484955E-2,-4.018836E-2,-4.676022E-2,-4.1985184E-2,7.4793496E-3,-3.386319E-2,4.9373176E-2,4.6981674E-2,2.590503E-2,-3.239444E-2,4.608043E-2],"categories":[],"categories_nodes":[],"categories_segments":[],"categories_sizes":[],"default_left":[0,0,0,0,0,0,0,0,0,0,0,0,0,0,0,0,0,0,0,0,0,0,0,0,0,0,0,0,0,0,0,0,0,0,0,0,0,0,0,0,0,0,0,0,0,0,0,0,0,0,0,0,0,0,0,0,0,0,0,0,0,0,0,0,0,0,0,0,0],"id":11,"left_children":[1,3,5,7,9,11,13,15,17,19,-1,21,23,25,-1,27,29,31,33,-1,35,37,39,41,-1,-1,43,-1,45,-1,47,49,51,53,-1,55,57,59,61,63,-1,-1,65,67,-1,-1,-1,-1,-1,-1,-1,-1,-1,-1,-1,-1,-1,-1,-1,-1,-1,-1,-1,-1,-1,-1,-1,-1,-1],"loss_changes":[3.520008E3,6.753801E2,1.8540942E2,1.8763405E2,1.0119873E2,7.693823E1,2.448752E1,1.1178022E2,1.08108696E2,3.2402832E1,0E0,1.5335205E1,5.914739E1,1.7406254E1,0E0,3.6863937E1,2.3182236E1,6.6368286E1,7.166995E1,0E0,2.6494629E1,7.3723145E0,3.479166E1,3.0085363E1,0E0,0E0,1.4943199E0,0E0,1.5685486E1,0E0,4.4209103E1,6.475185E1,6.585974E1,9.2438515E1,0E0,3.684253E1,3.7363281E0,2.366455E0,3.2665894E1,1.7961353E1,0E0,0E0,9.0322495E-1,1.3590353E1,0E0,0E0,0E0,0E0,0E0,0E0,0E0,0E0,0E0,0E0,0E0,0E0,0E0,0E0,0E0,0E0,0E0,0E0,0E0,0E0,0E0,0E0,0E0,0E0,0E0],"parents":[2147483647,0,0,1,1,2,2,3,3,4,4,5,5,6,6,7,7,8,8,9,9,11,11,12,12,13,13,15,15,16,16,17,17,18,18,20,20,21,21,22,22,23,23,26,26,28,28,30,30,31,31,32,32,33,33,35,35,36,36,37,37,38,38,39,39,42,42,43,43],"right_children":[2,4,6,8,10,12,14,16,18,20,-1,22,24,26,-1,28,30,32,34,-1,36,38,40,42,-1,-1,44,-1,46,-1,48,50,52,54,-1,56,58,60,62,64,-1,-1,66,68,-1,-1,-1,-1,-1,-1,-1,-1,-1,-1,-1,-1,-1,-1,-1,-1,-1,-1,-1,-1,-1,-1,-1,-1,-1],"split_conditions":[-4.5033917E-1,-4.0433925E-2,1.8822042E0,2.5975847E-1,-5.0703126E-1,6.352505E-2,2.1973345E0,-4.6841685E-2,-5.03929E-1,-5.784344E-1,-4.5320556E-2,7.023488E-1,-6.89469E-1,5.21696E-2,-3.8640086E-2,2.5204048E-1,7.9111314E-1,6.319462E-1,4.389498E-1,-4.1905843E-2,3.663931E0,1.5016029E0,-8.034373E-1,1.4077118E-1,-4.556061E-2,-3.3995286E-2,1.5016029E0,-4.155379E-2,-9.330876E-3,-4.7849994E-2,6.340657E-1,1.0618311E0,1.2095106E0,3.2975557E-1,-5.2847005E-2,-3.8992724E-1,2.8928164E-1,-1.6107501E-1,1.4051101E0,-8.078744E-1,-4.4870786E-2,-4.1263662E-2,-8.4007555E-1,8.137723E-1,4.8909366E-2,-3.1586256E-2,5.029499E-2,4.493982E-2,-4.460672E-2,1.906261E-2,-5.1549066E-2,-5.4258358E-2,4.883895E-2,-2.3682557E-2,3.977228E-2,3.6023166E-2,-4.7774326E-2,2.0149767E-2,4.484955E-2,-4.018836E-2,-4.676022E-2,-4.1985184E-2,7.4793496E-3,-3.386319E-2,4.9373176E-2,4.6981674E-2,2.590503E-2,-3.239444E-2,4.608043E-2],"split_indices":[27,15,20,20,9,15,20,0,12,14,0,24,9,16,0,3,14,18,5,0,24,28,9,20,0,0,28,0,16,0,23,3,3,5,0,1,14,27,3,9,0,0,3,5,0,0,0,0,0,0,0,0,0,0,0,0,0,0,0,0,0,0,0,0,0,0,0,0,0],"split_type":[0,0,0,0,0,0,0,0,0,0,0,0,0,0,0,0,0,0,0,0,0,0,0,0,0,0,0,0,0,0,0,0,0,0,0,0,0,0,0,0,0,0,0,0,0,0,0,0,0,0,0,0,0,0,0,0,0,0,0,0,0,0,0,0,0,0,0,0,0],"sum_hessian":[3.2662153E3,2.1156619E3,1.1505535E3,8.484297E2,1.2672322E3,1.1168665E3,3.368705E1,1.364106E2,7.120191E2,1.2551663E3,1.2065855E1,1.0757501E3,4.1116283E1,3.0113806E1,3.573245E0,2.6670769E1,1.0973983E2,5.904748E2,1.2154431E2,3.644653E0,1.2515216E3,1.0496499E3,2.6100245E1,2.4977037E1,1.6139246E1,2.143265E0,2.7970541E1,5.0045524E0,2.1666216E1,9.0687065E1,1.9052763E1,5.625825E2,2.7892267E1,8.879162E1,3.2752693E1,6.934141E2,5.581075E2,8.884859E2,1.6116399E2,9.126738E0,1.6973507E1,4.085301E0,2.0891737E1,8.392733E0,1.9577808E1,1.6691748E0,1.9997042E1,7.066942E0,1.1985821E1,5.515773E2,1.1005283E1,2.1320787E1,6.57148E0,5.799075E1,3.080087E1,6.89478E2,3.9360719E0,7.8988433E0,5.502087E2,1.1140485E2,7.7708105E2,1.4839908E2,1.2764917E1,2.5461822E0,6.580555E0,1.3163569E1,7.7281675E0,1.9008691E0,6.4918633E0],"tree_param":{"num_deleted":"0","num_feature":"30","num_nodes":"69","size_leaf_vector":"1"}},{"base_weights":[3.691102E-2,7.909933E-1,-1.2979417E0,1.3478969E-1,1.2109605E0,-1.4131432E0,6.269047E-1,-1.20747164E-1,1.0770754E0,1.2385266E0,-4.4539537E-2,-1.4504315E0,8.6635673E-1,1.1976035E0,-4.4085138E-2,1.603593E-1,-8.487096E-1,-4.480175E-2,1.1907036E0,1.2552148E0,-4.885973E-2,-1.469127E0,-6.1801404E-1,-3.8891338E-2,4.4423833E-2,1.492052E0,-3.926865E-2,-6.253325E-1,4.7680405E-1,-1.1648593E0,5.414209E-1,-5.014218E-2,1.2531996E0,-4.8209365E-2,1.2701342E0,-1.5079873E0,-1.2401102E0,8.758731E-1,-4.395704E-2,9.983255E-1,4.69838E-2,5.2721603E-3,-4.9419336E-2,3.3054717E-2,-1.8309066E-3,-4.289923E-2,-5.19883E-3,4.140388E-2,-4.3744687E-2,3.9156843E-2,-4.0160757E-2,3.122108E-2,4.232612E-2,-3.9826825E-2,-4.5996245E-2,-4.1161127E-2,9.17756E-3,-3.225188E-2,4.8228085E-2,-3.2412454E-2,4.647628E-2],"categories":[],"categories_nodes":[],"categories_segments":[],"categories_sizes":[],"default_left":[0,0,0,0,0,0,0,0,0,0,0,0,0,0,0,0,0,0,0,0,0,0,0,0,0,0,0,0,0,0,0,0,0,0,0,0,0,0,0,0,0,0,0,0,0,0,0,0,0,0,0,0,0,0,0,0,0,0,0,0,0],"id":12,"left_children":[1,3,5,7,9,11,13,15,17,19,-1,21,23,25,-1,27,29,-1,31,33,-1,35,37,-1,-1,39,-1,41,43,45,47,-1,49,-1,51,53,55,57,-1,59,-1,-1,-1,-1,-1,-1,-1,-1,-1,-1,-1,-1,-1,-1,-1,-1,-1,-1,-1,-1,-1],"loss_changes":[3.2445156E3,5.674518E2,2.5890332E2,1.9394073E2,9.515271E1,9.460083E1,8.120194E1,1.2989221E2,5.1961075E1,6.1548706E1,0E0,1.5912842E1,2.6239311E1,4.0880028E1,0E0,1.1424023E2,7.833353E1,0E0,3.1625427E1,5.486316E1,0E0,7.5317383E0,3.3517952E1,0E0,0E0,1.797638E-1,0E0,1.083669E2,1.100809E2,3.7701584E1,5.809627E1,0E0,2.3612274E1,0E0,3.8283936E1,2.0533447E0,3.2825394E1,1.5779345E1,0E0,1.1953349E1,0E0,0E0,0E0,0E0,0E0,0E0,0E0,0E0,0E0,0E0,0E0,0E0,0E0,0E0,0E0,0E0,0E0,0E0,0E0,0E0,0E0],"parents":[2147483647,0,0,1,1,2,2,3,3,4,4,5,5,6,6,7,7,8,8,9,9,11,11,12,12,13,13,15,15,16,16,18,18,19,19,21,21,22,22,25,25,27,27,28,28,29,29,30,30,32,32,34,34,35,35,36,36,37,37,39,39],"right_children":[2,4,6,8,10,12,14,16,18,20,-1,22,24,26,-1,28,30,-1,32,34,-1,36,38,-1,-1,40,-1,42,44,46,48,-1,50,-1,52,54,56,58,-1,60,-1,-1,-1,-1,-1,-1,-1,-1,-1,-1,-1,-1,-1,-1,-1,-1,-1,-1,-1,-1,-1],"split_conditions":[-4.5033917E-1,7.011112E-1,7.6795477E-1,6.8833494E-1,-5.0703126E-1,2.014881E0,-1.6763154E-1,-6.403741E-1,-1.3181316E0,-3.4270096E-1,-4.4539537E-2,2.554021E-1,-9.3257174E-2,-5.0703126E-1,-4.4085138E-2,6.6633487E-1,5.2782226E-1,-4.480175E-2,-1.3160453E0,-6.516449E-1,-4.885973E-2,1.5016029E0,-9.9680805E-1,-3.8891338E-2,4.4423833E-2,5.21696E-2,-3.926865E-2,-2.7323553E-1,-5.5086154E-1,1.9342901E-1,-2.2213091E-1,-5.014218E-2,8.754381E-1,-4.8209365E-2,6.8833494E-1,-1.6107501E-1,1.4051101E0,5.501669E-1,-4.395704E-2,1.702481E0,4.69838E-2,5.2721603E-3,-4.9419336E-2,3.3054717E-2,-1.8309066E-3,-4.289923E-2,-5.19883E-3,4.140388E-2,-4.3744687E-2,3.9156843E-2,-4.0160757E-2,3.122108E-2,4.232612E-2,-3.9826825E-2,-4.5996245E-2,-4.1161127E-2,9.17756E-3,-3.225188E-2,4.8228085E-2,-3.2412454E-2,4.647628E-2],"split_indices":[27,6,22,11,9,20,3,9,27,19,0,11,9,9,0,20,17,0,8,23,0,28,28,0,0,16,0,22,2,0,2,0,3,0,11,27,3,5,0,8,0,0,0,0,0,0,0,0,0,0,0,0,0,0,0,0,0,0,0,0,0],"split_type":[0,0,0,0,0,0,0,0,0,0,0,0,0,0,0,0,0,0,0,0,0,0,0,0,0,0,0,0,0,0,0,0,0,0,0,0,0,0,0,0,0,0,0,0,0,0,0,0,0,0,0,0,0,0,0,0,0,0,0,0,0],"sum_hessian":[3.2212585E3,2.0586804E3,1.1625781E3,8.0389935E2,1.254781E3,1.0971782E3,6.539991E1,6.3308575E2,1.7081358E2,1.2426143E3,1.2166798E1,1.0798771E3,1.7301054E1,5.1742855E1,1.3657054E1,4.572832E2,1.7580255E2,6.7171535E0,1.6409644E2,1.2359825E3,6.631714E0,1.0554083E3,2.4468765E1,3.5822332E0,1.3718821E1,4.6665714E1,5.0771394E0,1.310146E2,3.262686E2,1.4336084E2,3.2441715E1,2.9564486E0,1.6113998E2,5.8558803E0,1.2301266E3,8.975289E2,1.5787949E2,8.842732E0,1.5626033E1,7.9766507E0,3.8689064E1,7.390932E1,5.7105286E1,1.5041821E2,1.7585037E2,1.1276791E2,3.0592934E1,2.3073492E1,9.368222E0,1.5845563E2,2.6843555E0,4.708812E2,7.592454E2,1.16653175E2,7.808757E2,1.4557007E2,1.2309417E1,2.283981E0,6.5587516E0,1.4696686E0,6.506982E0],"tree_param":{"num_deleted":"0","num_feature":"30","num_nodes":"61","size_leaf_vector":"1"}},{"base_weights":[3.2268733E-2,7.8000015E-1,-1.2938626E0,1.4284185E-1,1.2039044E0,-1.4084969E0,6.329103E-1,-2.1747106E-1,8.3231705E-1,1.2354089E0,-4.838887E-2,-1.4264208E0,-9.064015E-2,1.1356579E0,-4.310477E-2,1.6950822E-1,-9.812919E-1,-7.1323484E-2,1.0973701E0,1.0073371E0,1.383494E0,-6.230223E-1,-1.4449785E0,-4.182474E-2,4.2496894E-2,1.3798867E0,-3.8420614E-2,-4.996338E-2,3.0614346E-1,-1.5474253E0,-1.5516452E-1,1.4171635E0,-8.155061E-1,1.1724771E0,-4.645272E-2,-8.924959E-2,1.1224886E0,-3.5893615E-2,1.3903939E0,-4.3360427E-2,4.4234395E-2,-1.3275175E0,-4.5396864E-2,7.333834E-1,1.5026658E0,2.065848E-2,-1.9025946E-2,2.8540874E-2,-5.297998E-2,-5.1994063E-2,2.0413328E-2,4.826155E-2,-2.9533993E-2,-3.759873E-2,4.4411097E-2,3.8278878E-2,-5.955695E-3,4.3962266E-2,-6.2913865E-2,-4.591818E-2,3.464147E-2,4.344559E-2,3.503162E-2,-4.540326E-2,-2.9355297E-2,-3.9402436E-2,4.55097E-2,2.979043E-2,4.7495615E-2],"categories":[],"categories_nodes":[],"categories_segments":[],"categories_sizes":[],"default_left":[0,0,0,0,0,0,0,0,0,0,0,0,0,0,0,0,0,0,0,0,0,0,0,0,0,0,0,0,0,0,0,0,0,0,0,0,0,0,0,0,0,0,0,0,0,0,0,0,0,0,0,0,0,0,0,0,0,0,0,0,0,0,0,0,0,0,0,0,0],"id":13,"left_children":[1,3,5,7,9,11,13,15,17,19,-1,21,23,25,-1,27,29,31,33,35,37,39,41,-1,-1,43,-1,-1,45,47,49,51,53,55,-1,57,59,-1,61,-1,-1,63,-1,65,67,-1,-1,-1,-1,-1,-1,-1,-1,-1,-1,-1,-1,-1,-1,-1,-1,-1,-1,-1,-1,-1,-1,-1,-1],"loss_changes":[3.1467969E3,5.4791846E2,2.5361755E2,2.0186429E2,1.1012012E2,2.5388184E1,6.920798E1,1.5800484E2,6.686661E1,3.9321045E1,0E0,1.4988525E1,3.25516E1,3.2932053E1,0E0,8.9585075E1,8.381096E1,7.224918E1,4.4672974E1,6.0491882E1,1.4627319E1,4.6664196E1,6.3356934E0,0E0,0E0,2.743225E0,0E0,0E0,1.19662926E2,5.9860657E1,9.900062E1,1.159322E1,4.54999E1,3.0088379E1,0E0,1.4783719E2,3.8779663E1,0E0,7.661499E0,0E0,0E0,2.3869995E1,0E0,1.752592E1,5.9448242E-2,0E0,0E0,0E0,0E0,0E0,0E0,0E0,0E0,0E0,0E0,0E0,0E0,0E0,0E0,0E0,0E0,0E0,0E0,0E0,0E0,0E0,0E0,0E0,0E0],"parents":[2147483647,0,0,1,1,2,2,3,3,4,4,5,5,6,6,7,7,8,8,9,9,11,11,12,12,13,13,15,15,16,16,17,17,18,18,19,19,20,20,21,21,22,22,25,25,28,28,29,29,30,30,31,31,32,32,33,33,35,35,36,36,38,38,41,41,43,43,44,44],"right_children":[2,4,6,8,10,12,14,16,18,20,-1,22,24,26,-1,28,30,32,34,36,38,40,42,-1,-1,44,-1,-1,46,48,50,52,54,56,-1,58,60,-1,62,-1,-1,64,-1,66,68,-1,-1,-1,-1,-1,-1,-1,-1,-1,-1,-1,-1,-1,-1,-1,-1,-1,-1,-1,-1,-1,-1,-1,-1],"split_conditions":[-4.5033917E-1,-8.5793E-2,7.6795477E-1,7.023488E-1,-4.6854153E-1,2.0590338E-1,-1.6763154E-1,-2.2213091E-1,-1.0288675E0,1.6895429E0,-4.838887E-2,-1.2118049E0,5.780287E-1,-5.6316996E-1,-4.310477E-2,-7.4863595E-1,-1.5502979E-1,-2.522992E-2,9.003985E-1,-1.3181316E0,-7.469288E-1,7.023488E-1,-2.885868E-1,-4.182474E-2,4.2496894E-2,5.989768E-2,-3.8420614E-2,-4.996338E-2,-5.795077E-1,-1.1822547E0,-1.819106E-1,2.3955375E-1,3.2587686E0,-4.6854153E-1,-4.645272E-2,-7.552847E-1,-2.1688688E-1,-3.5893615E-2,-4.469788E-1,-4.3360427E-2,4.4234395E-2,-3.3926582E-1,-4.5396864E-2,1.702481E0,-1.6287777E-1,2.065848E-2,-1.9025946E-2,2.8540874E-2,-5.297998E-2,-5.1994063E-2,2.0413328E-2,4.826155E-2,-2.9533993E-2,-3.759873E-2,4.4411097E-2,3.8278878E-2,-5.955695E-3,4.3962266E-2,-6.2913865E-2,-4.591818E-2,3.464147E-2,4.344559E-2,3.503162E-2,-4.540326E-2,-2.9355297E-2,-3.9402436E-2,4.55097E-2,2.979043E-2,4.7495615E-2],"split_indices":[27,15,22,24,12,0,3,2,27,24,0,13,5,12,0,12,13,0,3,27,23,24,22,0,0,10,0,0,19,21,3,23,8,12,0,19,14,0,2,0,0,22,0,8,2,0,0,0,0,0,0,0,0,0,0,0,0,0,0,0,0,0,0,0,0,0,0,0,0],"split_type":[0,0,0,0,0,0,0,0,0,0,0,0,0,0,0,0,0,0,0,0,0,0,0,0,0,0,0,0,0,0,0,0,0,0,0,0,0,0,0,0,0,0,0,0,0,0,0,0,0,0,0,0,0,0,0,0,0,0,0,0,0,0,0,0,0,0,0,0,0],"sum_hessian":[3.1714675E3,2.0282579E3,1.1432096E3,8.1084174E2,1.2174163E3,1.0792671E3,6.3942505E1,5.329907E2,2.7785104E2,1.2045061E3,1.2910084E1,1.0647039E3,1.4563297E1,5.1809147E1,1.2133355E1,3.5427847E2,1.7871222E2,6.3180805E1,2.1467026E2,4.772606E2,7.2724554E2,2.4818825E1,1.039885E3,7.84955E0,6.713748E0,4.744286E1,4.366287E0,2.3776812E1,3.3050168E2,1.05524605E2,7.318762E1,2.0757696E1,4.242311E1,2.0928604E2,5.384216E0,4.5375443E1,4.3188513E2,1.4799168E0,7.257656E2,1.8052332E1,6.766493E0,3.8968155E2,6.502035E2,8.684915E0,3.8757946E1,2.3513219E2,9.5369484E1,8.218321E0,9.730628E1,2.4966524E1,4.82211E1,1.9530123E1,1.2275743E0,3.6010605E1,6.4125037E0,1.9466194E2,1.4624091E1,2.572629E1,1.9649153E1,4.6251507E0,4.2725998E2,5.7184546E2,1.5392021E2,2.5206445E2,1.376171E2,2.2172623E0,6.467653E0,7.1070337E0,3.1650911E1],"tree_param":{"num_deleted":"0","num_feature":"30","num_nodes":"69","size_leaf_vector":"1"}},{"base_weights":[7.140203E-3,7.3703E-1,-1.3257924E0,1.08636074E-1,1.1723236E0,-1.4070618E0,2.5682524E-1,-1.0483266E0,3.1764346E-1,1.2015902E0,-4.3754358E-2,-1.4259021E0,3.984143E-1,1.0781983E0,-4.3824065E-2,7.785671E-1,-4.622941E-2,5.7935995E-1,-2.2526982E-1,9.53553E-1,1.3304412E0,-6.234819E-1,-1.4447659E0,4.587373E-2,-3.8987156E-2,1.3741741E0,-3.655176E-2,1.3457068E0,-4.033496E-2,1.6081734E-1,1.0019823E0,1.4228219E-1,-5.2770197E-2,1.165803E0,4.028736E-1,-3.43529E-2,1.3373033E0,3.848276E-2,-4.2826124E-2,-1.3508027E0,-4.4798534E-2,8.009757E-1,4.520588E-2,4.9857754E-2,-3.3783674E-2,-5.867106E-2,1.2346296E-2,-4.1830044E-2,3.143537E-2,-5.7055727E-3,4.912404E-2,-5.4807443E-2,3.6119472E-2,2.0292398E-2,-6.338861E-2,3.6949426E-2,4.2605102E-2,-4.4723134E-2,3.9483782E-2,-3.190773E-2,4.0114094E-2],"categories":[],"categories_nodes":[],"categories_segments":[],"categories_sizes":[],"default_left":[0,0,0,0,0,0,0,0,0,0,0,0,0,0,0,0,0,0,0,0,0,0,0,0,0,0,0,0,0,0,0,0,0,0,0,0,0,0,0,0,0,0,0,0,0,0,0,0,0,0,0,0,0,0,0,0,0,0,0,0,0],"id":14,"left_children":[1,3,5,7,9,11,13,15,17,19,-1,21,23,25,-1,27,-1,29,31,33,35,37,39,-1,-1,41,-1,43,-1,45,47,49,-1,51,53,-1,55,-1,-1,57,-1,59,-1,-1,-1,-1,-1,-1,-1,-1,-1,-1,-1,-1,-1,-1,-1,-1,-1,-1,-1],"loss_changes":[3.0561904E3,5.5510425E2,1.4332117E2,2.0146672E2,9.407361E1,3.6535156E1,7.936012E1,1.1595494E2,1.0034176E2,3.6648926E1,0E0,1.4942139E1,2.4453033E1,2.7418568E1,0E0,3.5216106E1,0E0,8.4063065E1,1.2997437E2,4.7351746E1,1.4751953E1,4.1374886E1,2.6418457E0,0E0,0E0,1.3805084E0,0E0,1.9376698E1,0E0,1.2838834E2,2.7478378E1,9.304943E1,0E0,3.5882416E1,8.081294E1,0E0,5.050171E0,0E0,0E0,1.3576709E2,0E0,9.949293E0,0E0,0E0,0E0,0E0,0E0,0E0,0E0,0E0,0E0,0E0,0E0,0E0,0E0,0E0,0E0,0E0,0E0,0E0,0E0],"parents":[2147483647,0,0,1,1,2,2,3,3,4,4,5,5,6,6,7,7,8,8,9,9,11,11,12,12,13,13,15,15,17,17,18,18,19,19,20,20,21,21,22,22,25,25,27,27,29,29,30,30,31,31,33,33,34,34,36,36,39,39,41,41],"right_children":[2,4,6,8,10,12,14,16,18,20,-1,22,24,26,-1,28,-1,30,32,34,36,38,40,-1,-1,42,-1,44,-1,46,48,50,-1,52,54,-1,56,-1,-1,58,-1,60,-1,-1,-1,-1,-1,-1,-1,-1,-1,-1,-1,-1,-1,-1,-1,-1,-1,-1,-1],"split_conditions":[-4.5033917E-1,-4.0433925E-2,9.09111E-1,2.5975847E-1,-5.0703126E-1,2.1410947E0,-4.208531E-1,-4.6841685E-2,-6.546538E-1,2.6739116E0,-4.3754358E-2,-1.2118049E0,8.271329E-2,-5.826829E-1,-4.3824065E-2,-5.0733113E-1,-4.622941E-2,-1.0288675E0,-2.1053042E-1,9.594334E-1,-3.2336882E-1,-8.034373E-1,-3.6546454E-1,4.587373E-2,-3.8987156E-2,8.941917E-2,-3.655176E-2,3.841E-1,-4.033496E-2,-8.6361915E-1,-4.725535E-1,6.888021E-1,-5.2770197E-2,-5.725467E-1,-5.950713E-1,-3.43529E-2,5.6331124E0,3.848276E-2,-4.2826124E-2,-3.7011287E-1,-4.4798534E-2,-5.8002174E-1,4.520588E-2,4.9857754E-2,-3.3783674E-2,-5.867106E-2,1.2346296E-2,-4.1830044E-2,3.143537E-2,-5.7055727E-3,4.912404E-2,-5.4807443E-2,3.6119472E-2,2.0292398E-2,-6.338861E-2,3.6949426E-2,4.2605102E-2,-4.4723134E-2,3.9483782E-2,-3.190773E-2,4.0114094E-2],"split_indices":[27,15,22,20,9,20,3,0,12,6,0,13,0,19,0,1,0,27,22,15,14,9,25,0,0,0,0,5,0,9,23,13,0,3,1,0,6,0,0,25,0,1,0,0,0,0,0,0,0,0,0,0,0,0,0,0,0,0,0,0,0],"split_type":[0,0,0,0,0,0,0,0,0,0,0,0,0,0,0,0,0,0,0,0,0,0,0,0,0,0,0,0,0,0,0,0,0,0,0,0,0,0,0,0,0,0,0,0,0,0,0,0,0,0,0,0,0,0,0,0,0,0,0,0,0],"sum_hessian":[3.139335E3,2.0288309E3,1.110504E3,8.307713E2,1.1980597E3,1.0563691E3,5.413494E1,1.2650205E2,7.042692E2,1.1854156E3,1.2644E1,1.0456677E3,1.0701378E1,3.6873993E1,1.7260948E1,2.6744785E1,9.975726E1,4.7515103E2,2.291182E2,4.0814355E2,7.7727216E2,2.4799635E1,1.0208681E3,6.48343E0,4.217948E0,3.3020134E1,3.8538618E0,2.13955E1,5.349284E0,2.3942137E2,2.3572966E2,1.8555754E2,4.356066E1,2.9379016E2,1.14353386E2,1.69007E0,7.755821E2,7.18061E0,1.7619024E1,3.5745175E2,6.634163E2,7.529622E0,2.5490509E1,1.925933E1,2.1361706E0,2.4637987E1,2.1478339E2,3.8747709E0,2.3185489E2,1.5251685E2,3.3040684E1,3.110642E0,2.9067953E2,1.03798744E2,1.0554641E1,3.478868E2,4.2769528E2,3.400461E2,1.7405636E1,1.4619142E0,6.067708E0],"tree_param":{"num_deleted":"0","num_feature":"30","num_nodes":"61","size_leaf_vector":"1"}},{"base_weights":[1.0155606E-2,7.2283864E-1,-1.2851391E0,1.1744666E-1,1.1489481E0,-1.3853871E0,4.3309614E-1,-3.4119567E-1,6.6067886E-1,8.4496754E-1,1.3082981E0,-6.5419567E-1,-1.4035587E0,1.0143814E0,-4.2190332E-2,1.2635264E0,-5.4239047E-1,1.8903735E-1,1.1083307E0,9.2141837E-1,-5.9692955E-1,1.3179245E0,-4.291881E-2,-4.2332824E-2,3.9781515E-2,-1.1437582E0,-1.442467E0,1.3019532E0,-3.8038705E-2,1.4255239E0,-4.0938567E-2,1.0731002E-1,-8.3366704E-1,-4.949901E-2,4.8142955E-1,-5.3896457E-2,1.1458942E0,4.5011878E-1,1.1407481E0,-5.111553E-2,3.955248E-2,1.3232995E0,-2.7908413E-2,-5.434378E-1,-4.4234026E-2,-4.4065513E-2,-1.0848991E0,1.3840559E0,-2.5721062E-2,-3.0829046E-2,4.530905E-2,-5.127254E-2,1.621682E-2,-4.2558897E-2,-1.1950314E-2,-5.764145E-2,2.1454236E-2,3.5575595E-2,-3.8126804E-2,-2.9478831E-2,2.4895193E-2,-3.658956E-2,3.4769945E-2,1.1306916E-2,3.9997414E-2,2.450855E-2,-4.341161E-2,5.489278E-2,-4.3615077E-2,2.2752782E-2,4.5628008E-2],"categories":[],"categories_nodes":[],"categories_segments":[],"categories_sizes":[],"default_left":[0,0,0,0,0,0,0,0,0,0,0,0,0,0,0,0,0,0,0,0,0,0,0,0,0,0,0,0,0,0,0,0,0,0,0,0,0,0,0,0,0,0,0,0,0,0,0,0,0,0,0,0,0,0,0,0,0,0,0,0,0,0,0,0,0,0,0,0,0,0,0],"id":15,"left_children":[1,3,5,7,9,11,13,15,17,19,21,23,25,27,-1,29,31,33,35,37,39,41,-1,-1,-1,43,45,47,-1,49,-1,51,53,-1,55,-1,57,59,61,-1,-1,63,-1,65,-1,-1,67,69,-1,-1,-1,-1,-1,-1,-1,-1,-1,-1,-1,-1,-1,-1,-1,-1,-1,-1,-1,-1,-1,-1,-1],"loss_changes":[2.833435E3,5.1062146E2,1.8824854E2,2.0428548E2,5.5177734E1,1.2761841E1,6.64549E1,1.4427776E2,7.902345E1,4.4912537E1,2.1936523E1,4.2099995E1,8.496216E0,3.2363632E1,0E0,2.3168732E1,7.5010544E1,9.97052E1,2.3045227E1,3.9032562E1,4.6493988E1,1.039502E1,0E0,0E0,0E0,2.6113907E1,6.606079E0,8.641785E0,0E0,1.1419128E1,0E0,9.806195E1,6.9071976E1,0E0,9.093675E1,0E0,1.9902664E1,6.781308E1,1.2631775E1,0E0,0E0,6.6239014E0,0E0,6.2325703E1,0E0,0E0,7.0998505E1,2.3483887E0,0E0,0E0,0E0,0E0,0E0,0E0,0E0,0E0,0E0,0E0,0E0,0E0,0E0,0E0,0E0,0E0,0E0,0E0,0E0,0E0,0E0,0E0,0E0],"parents":[2147483647,0,0,1,1,2,2,3,3,4,4,5,5,6,6,7,7,8,8,9,9,10,10,11,11,12,12,13,13,15,15,16,16,17,17,18,18,19,19,20,20,21,21,25,25,26,26,27,27,29,29,31,31,32,32,34,34,36,36,37,37,38,38,41,41,43,43,46,46,47,47],"right_children":[2,4,6,8,10,12,14,16,18,20,22,24,26,28,-1,30,32,34,36,38,40,42,-1,-1,-1,44,46,48,-1,50,-1,52,54,-1,56,-1,58,60,62,-1,-1,64,-1,66,-1,-1,68,70,-1,-1,-1,-1,-1,-1,-1,-1,-1,-1,-1,-1,-1,-1,-1,-1,-1,-1,-1,-1,-1,-1,-1],"split_conditions":[-4.5033917E-1,-5.4512795E-2,6.352505E-2,1.8198296E-1,1.6875114E0,-1.2118049E0,-1.6763154E-1,-7.35888E-1,7.011112E-1,-5.03929E-1,-3.9938498E-1,-5.4512795E-2,-1.6107501E-1,-5.991079E-1,-4.2190332E-2,1E-5,-1.039106E0,3.7307215E-1,-7.186543E-1,-1.0288675E0,2.1334042E-1,-5.0703126E-1,-4.291881E-2,-4.2332824E-2,3.9781515E-2,-5.232096E-1,1.4051101E0,2.483007E-1,-3.8038705E-2,-6.912182E-1,-4.0938567E-2,-1.142609E0,4.04609E-1,-4.949901E-2,-8.61939E-1,-5.3896457E-2,-5.03929E-1,-7.416775E-1,-1.8351081E-1,-5.111553E-2,3.955248E-2,-1.243482E-1,-2.7908413E-2,-1.6532543E-1,-4.4234026E-2,-4.4065513E-2,-6.596978E-1,6.706319E-2,-2.5721062E-2,-3.0829046E-2,4.530905E-2,-5.127254E-2,1.621682E-2,-4.2558897E-2,-1.1950314E-2,-5.764145E-2,2.1454236E-2,3.5575595E-2,-3.8126804E-2,-2.9478831E-2,2.4895193E-2,-3.658956E-2,3.4769945E-2,1.1306916E-2,3.9997414E-2,2.450855E-2,-4.341161E-2,5.489278E-2,-4.3615077E-2,2.2752782E-2,4.5628008E-2],"split_indices":[27,11,15,0,6,13,3,19,6,12,19,11,27,19,0,29,13,5,19,27,1,9,0,0,0,13,3,10,0,1,0,21,14,0,9,0,12,12,10,0,0,14,0,12,0,0,4,10,0,0,0,0,0,0,0,0,0,0,0,0,0,0,0,0,0,0,0,0,0,0,0],"split_type":[0,0,0,0,0,0,0,0,0,0,0,0,0,0,0,0,0,0,0,0,0,0,0,0,0,0,0,0,0,0,0,0,0,0,0,0,0,0,0,0,0,0,0,0,0,0,0,0,0,0,0,0,0,0,0,0,0,0,0,0,0,0,0,0,0,0,0,0,0,0,0],"sum_hessian":[3.067357E3,1.978958E3,1.0883989E3,8.180272E2,1.1609308E3,1.0285815E3,5.9817352E1,4.4374896E2,3.742783E2,4.0143823E2,7.594925E2,2.5839869E1,1.00274164E3,4.579433E1,1.4023021E1,4.8849228E1,3.9489972E2,1.8294818E2,1.913301E2,3.8156805E2,1.987016E1,7.573495E2,2.1429982E0,1.8902344E1,6.9375234E0,1.3457127E2,8.681704E2,4.1051453E1,4.742879E0,4.644404E1,2.4051907E0,1.2243552E2,2.724642E2,2.4460508E1,1.5848767E2,1.84474E0,1.8948535E2,1.2214752E2,2.5942053E2,1.2662586E1,7.207574E0,7.5595355E2,1.3959628E0,4.8739727E1,8.583154E1,8.056191E2,6.2551334E1,3.989363E1,1.1578205E0,1.1799197E0,4.526412E1,2.3012262E1,9.9423256E1,1.15287964E2,1.5717624E2,1.3408851E1,1.4507881E2,1.8690443E2,2.580929E0,2.525787E1,9.6889656E1,1.4853078E0,2.5793524E2,8.267713E0,7.4768585E2,1.949141E1,2.9248318E1,6.583233E0,5.59681E1,8.335463E0,3.155817E1],"tree_param":{"num_deleted":"0","num_feature":"30","num_nodes":"71","size_leaf_vector":"1"}},{"base_weights":[9.93013E-3,7.0665604E-1,-1.2289392E0,1.1725447E-1,1.108549E0,-1.3416426E0,6.111548E-1,-2.5720972E-1,7.820677E-1,1.1362798E0,-4.2562507E-2,-1.3803296E0,1.0111426E0,1.1077802E0,-4.0919237E-2,-9.756888E-1,4.68883E-2,8.880203E-1,-5.4971173E-2,-5.1766586E-1,1.1588479E0,-1.4200629E0,-1.1579273E0,4.5416433E-2,-3.509495E-2,1.3362601E0,-3.705542E-2,1.1822739E0,-1.2210974E0,2.3590672E-1,-1.1265787E0,9.587416E-1,-4.7304478E-2,3.9071828E-2,-5.1595524E-2,-5.837248E-2,1.1696005E0,-1.238071E0,-4.3441903E-2,-4.3526333E-2,-4.8085004E-1,6.433801E-1,4.4321705E-2,-3.03111E-2,4.300395E-2,3.360297E-2,-4.1446712E-2,-4.9936E-2,1.1566356E-2,-4.7753397E-2,1.1170042E-2,-1.641996E-2,3.219517E-2,2.4633067E-2,3.7764125E-2,-4.3286618E-2,4.282141E-2,4.639765E-2,-4.313263E-2,-3.779976E-2,4.330249E-2],"categories":[],"categories_nodes":[],"categories_segments":[],"categories_sizes":[],"default_left":[0,0,0,0,0,0,0,0,0,0,0,0,0,0,0,0,0,0,0,0,0,0,0,0,0,0,0,0,0,0,0,0,0,0,0,0,0,0,0,0,0,0,0,0,0,0,0,0,0,0,0,0,0,0,0,0,0,0,0,0,0],"id":16,"left_children":[1,3,5,7,9,11,13,15,17,19,-1,21,23,25,-1,27,29,31,-1,33,35,37,39,-1,-1,41,-1,43,45,47,49,51,-1,-1,-1,-1,53,55,-1,-1,57,59,-1,-1,-1,-1,-1,-1,-1,-1,-1,-1,-1,-1,-1,-1,-1,-1,-1,-1,-1],"loss_changes":[2.6125928E3,4.5876678E2,2.2676855E2,1.9600839E2,8.23313E1,9.4870605E1,6.386389E1,1.1013978E2,8.0199036E1,4.3144653E1,0E0,7.2874756E0,2.0619303E1,2.9137562E1,0E0,8.082532E1,7.9006226E1,4.9147583E1,0E0,3.7324135E1,3.982312E1,2.5546875E0,3.076529E1,0E0,0E0,3.6713333E0,0E0,1.0158165E1,5.2293015E1,8.782485E1,3.5054382E1,4.6477036E1,0E0,0E0,0E0,0E0,3.3831177E1,6.792758E1,0E0,0E0,9.806338E1,1.669543E1,0E0,0E0,0E0,0E0,0E0,0E0,0E0,0E0,0E0,0E0,0E0,0E0,0E0,0E0,0E0,0E0,0E0,0E0,0E0],"parents":[2147483647,0,0,1,1,2,2,3,3,4,4,5,5,6,6,7,7,8,8,9,9,11,11,12,12,13,13,15,15,16,16,17,17,19,19,20,20,21,21,22,22,25,25,27,27,28,28,29,29,30,30,31,31,36,36,37,37,40,40,41,41],"right_children":[2,4,6,8,10,12,14,16,18,20,-1,22,24,26,-1,28,30,32,-1,34,36,38,40,-1,-1,42,-1,44,46,48,50,52,-1,-1,-1,-1,54,56,-1,-1,58,60,-1,-1,-1,-1,-1,-1,-1,-1,-1,-1,-1,-1,-1,-1,-1,-1,-1,-1,-1],"split_conditions":[-4.5033917E-1,7.011112E-1,7.6795477E-1,-5.4512795E-2,-5.0703126E-1,2.014881E0,-5.0703126E-1,3.7307215E-1,1.5016029E0,-1.7495392E-1,-4.2562507E-2,1.5016029E0,2.1069773E-1,-1.6763154E-1,-4.0919237E-2,-7.3431975E-1,-5.128683E-1,9.003985E-1,-5.4971173E-2,-1.3170296E0,-2.5057433E0,-9.1940486E-1,5.605136E-1,4.5416433E-2,-3.509495E-2,5.2499473E-2,-3.705542E-2,-6.932223E-1,-7.8585304E-2,-8.6410147E-1,1.9634083E-1,-1.3181316E0,-4.7304478E-2,3.9071828E-2,-5.1595524E-2,-5.837248E-2,1.6875114E0,-9.256184E-1,-4.3441903E-2,-4.3526333E-2,6.164151E-1,1.702481E0,4.4321705E-2,-3.03111E-2,4.300395E-2,3.360297E-2,-4.1446712E-2,-4.9936E-2,1.1566356E-2,-4.7753397E-2,1.1170042E-2,-1.641996E-2,3.219517E-2,2.4633067E-2,3.7764125E-2,-4.3286618E-2,4.282141E-2,4.639765E-2,-4.313263E-2,-3.779976E-2,4.330249E-2],"split_indices":[27,6,22,11,9,20,9,5,28,26,0,28,0,3,0,19,9,3,0,4,2,13,10,0,0,10,0,1,0,9,0,27,0,0,0,0,6,13,0,0,10,8,0,0,0,0,0,0,0,0,0,0,0,0,0,0,0,0,0,0,0],"split_type":[0,0,0,0,0,0,0,0,0,0,0,0,0,0,0,0,0,0,0,0,0,0,0,0,0,0,0,0,0,0,0,0,0,0,0,0,0,0,0,0,0,0,0,0,0,0,0,0,0,0,0,0,0,0,0,0,0,0,0,0,0],"sum_hessian":[3.0247976E3,1.9362836E3,1.088514E3,7.855364E2,1.1507472E3,1.025947E3,6.256707E1,5.0289035E2,2.8264603E2,1.138802E3,1.1945137E1,1.00975684E3,1.6190157E1,5.034699E1,1.2220083E1,1.4889474E2,3.5399557E2,2.7227228E2,1.0373745E1,1.50344715E1,1.1237676E3,8.5213354E2,1.5762329E2,1.3405833E1,2.784323E0,4.6265007E1,4.0819807E0,1.481385E1,1.340809E2,3.055737E2,4.8421898E1,2.6527213E2,7.000179E0,5.9472365E0,9.087235E0,3.2575512E0,1.12051E3,1.1965333E2,7.324802E2,1.0922299E2,4.8400295E1,8.7695465E0,3.749546E1,1.212E0,1.36018505E1,8.216534E0,1.25864365E2,2.1565363E1,2.8400833E2,3.6905872E1,1.1516025E1,1.8464867E1,2.4680725E2,2.3043979E2,8.9007025E2,1.1154105E2,8.11227E0,1.5321554E1,3.307874E1,2.4250865E0,6.34446E0],"tree_param":{"num_deleted":"0","num_feature":"30","num_nodes":"61","size_leaf_vector":"1"}},{"base_weights":[1.6949388E-3,6.820909E-1,-1.2548492E0,7.049057E-2,1.1159207E0,-1.3079256E0,9.573084E-1,-3.3285117E-1,7.439534E-1,1.1445005E0,-4.2220365E-2,-1.3411149E0,2.4319334E-2,4.4352647E-2,-3.759507E-2,7.5586565E-2,-1.0007582E0,-9.180091E-1,8.8055617E-1,9.877095E-1,1.3370994E0,-1.3593216E0,-6.3343805E-1,1.2009857E0,-4.1515276E-2,-6.616831E-1,5.2344817E-1,1.168791E0,-1.1999898E0,-5.548739E-2,3.8652647E-2,9.4811046E-1,-4.602959E-2,1.0065094E0,-4.8154455E-2,1.3503604E0,9.580994E-1,-1.4002157E0,-1.1310856E0,-4.1395225E-2,7.4502033E-1,4.3127567E-2,-2.6193969E-2,-7.925428E-3,-5.2248918E-2,-4.8542514E-2,2.1317767E-2,-3.908124E-2,4.929785E-2,-1.26291625E-2,-4.5547146E-2,2.9867508E-2,-4.2656515E-2,3.104344E-2,-1.4692598E-2,2.7497126E-2,4.081839E-2,-5.3504486E-2,3.7198726E-2,-3.6219828E-2,-4.281785E-2,-4.2923167E-2,-1.341129E-2,4.3043487E-2,-3.1145431E-2],"categories":[],"categories_nodes":[],"categories_segments":[],"categories_sizes":[],"default_left":[0,0,0,0,0,0,0,0,0,0,0,0,0,0,0,0,0,0,0,0,0,0,0,0,0,0,0,0,0,0,0,0,0,0,0,0,0,0,0,0,0,0,0,0,0,0,0,0,0,0,0,0,0,0,0,0,0,0,0,0,0,0,0,0,0],"id":17,"left_children":[1,3,5,7,9,11,13,15,17,19,-1,21,23,-1,-1,25,27,29,31,33,35,37,39,41,-1,43,45,47,49,-1,-1,51,-1,53,-1,55,57,59,61,-1,63,-1,-1,-1,-1,-1,-1,-1,-1,-1,-1,-1,-1,-1,-1,-1,-1,-1,-1,-1,-1,-1,-1,-1,-1],"loss_changes":[2.5382483E3,5.1094714E2,1.2370178E2,2.1764116E2,8.2861084E1,4.5083862E1,3.066573E1,1.3680994E2,6.893614E1,3.2338257E1,0E0,1.1947754E1,4.4324677E1,0E0,0E0,1.0335335E2,8.3645386E1,5.023648E1,4.67742E1,3.1752441E1,1.2059326E0,7.4541016E0,2.8610012E1,8.401459E0,0E0,5.0337128E1,7.915162E1,2.150082E1,4.2687653E1,0E0,0E0,3.1890518E1,0E0,2.6498169E1,0E0,8.7927246E-1,1.7864603E1,2.5389404E0,3.058966E1,0E0,1.3870775E1,0E0,0E0,0E0,0E0,0E0,0E0,0E0,0E0,0E0,0E0,0E0,0E0,0E0,0E0,0E0,0E0,0E0,0E0,0E0,0E0,0E0,0E0,0E0,0E0],"parents":[2147483647,0,0,1,1,2,2,3,3,4,4,5,5,6,6,7,7,8,8,9,9,11,11,12,12,15,15,16,16,17,17,18,18,19,19,20,20,21,21,22,22,23,23,25,25,26,26,27,27,28,28,31,31,33,33,35,35,36,36,37,37,38,38,40,40],"right_children":[2,4,6,8,10,12,14,16,18,20,-1,22,24,-1,-1,26,28,30,32,34,36,38,40,42,-1,44,46,48,50,-1,-1,52,-1,54,-1,56,58,60,62,-1,64,-1,-1,-1,-1,-1,-1,-1,-1,-1,-1,-1,-1,-1,-1,-1,-1,-1,-1,-1,-1,-1,-1,-1,-1],"split_conditions":[-4.5033917E-1,-4.0433925E-2,2.014881E0,-5.4512795E-2,-5.0703126E-1,9.594334E-1,2.1973345E0,-2.4202314E-1,-6.9355327E-1,4.646712E0,-4.2220365E-2,2.554021E-1,-8.420835E-1,4.4352647E-2,-3.759507E-2,4.491503E-3,-1.359336E0,1.9041047E0,9.003985E-1,1.5728682E0,2.3515806E0,1.5016029E0,6.126198E-1,-5.7556385E-1,-4.1515276E-2,1.5439038E-1,-3.0863889E-2,5.022386E-1,-6.854423E-1,-5.548739E-2,3.8652647E-2,6.0278E-1,-4.602959E-2,1.4240489E0,-4.8154455E-2,2.1880958E-2,3.046833E-2,-1.6107501E-1,5.605136E-1,-4.1395225E-2,-8.3682203E-1,4.3127567E-2,-2.6193969E-2,-7.925428E-3,-5.2248918E-2,-4.8542514E-2,2.1317767E-2,-3.908124E-2,4.929785E-2,-1.26291625E-2,-4.5547146E-2,2.9867508E-2,-4.2656515E-2,3.104344E-2,-1.4692598E-2,2.7497126E-2,4.081839E-2,-5.3504486E-2,3.7198726E-2,-3.6219828E-2,-4.281785E-2,-4.2923167E-2,-1.341129E-2,4.3043487E-2,-3.1145431E-2],"split_indices":[27,15,20,11,9,15,20,22,25,6,0,11,26,0,0,10,21,20,3,7,20,28,26,1,0,0,3,28,19,0,0,18,0,8,0,26,10,27,10,0,21,0,0,0,0,0,0,0,0,0,0,0,0,0,0,0,0,0,0,0,0,0,0,0,0],"split_type":[0,0,0,0,0,0,0,0,0,0,0,0,0,0,0,0,0,0,0,0,0,0,0,0,0,0,0,0,0,0,0,0,0,0,0,0,0,0,0,0,0,0,0,0,0,0,0,0,0,0,0,0,0,0,0,0,0,0,0,0,0,0,0,0,0],"sum_hessian":[2.9668923E3,1.9249979E3,1.0418944E3,7.9931287E2,1.125685E3,1.0178811E3,2.401328E1,5.002283E2,2.9908456E2,1.113618E3,1.2067006E1,9.931332E2,2.4747938E1,1.9700197E1,4.313084E0,3.1095828E2,1.8927002E2,2.2281292E1,2.7680325E2,6.1725287E2,4.9636514E2,9.673255E2,2.5807661E1,1.3562325E1,1.1185614E1,1.1733085E2,1.9362744E2,1.5509673E1,1.7376035E2,1.5780421E1,6.500872E0,2.6986148E2,6.941783E0,6.1341705E2,3.8358378E0,4.771084E2,1.9256763E1,8.159863E2,1.5133919E2,1.674152E1,9.066141E0,1.2449116E1,1.1132089E0,8.6673195E1,3.0657648E1,1.4946386E1,1.7868105E2,2.2168074E0,1.3292866E1,5.1070732E1,1.2268961E2,2.6513058E2,4.7308836E0,6.023441E2,1.1072912E1,1.3103311E1,4.6400507E2,1.298538E0,1.7958225E1,1.05956635E2,7.100297E2,1.04475624E2,4.6863575E1,6.678292E0,2.3878496E0],"tree_param":{"num_deleted":"0","num_feature":"30","num_nodes":"65","size_leaf_vector":"1"}},{"base_weights":[4.4140507E-2,7.173E-1,-1.2469476E0,1.2200921E-1,1.1054419E0,-1.3285925E0,3.8470432E-1,-1.0664712E-1,9.702594E-1,1.1308656E0,-4.1176733E-2,-1.3475332E0,4.1148344E-1,1.0705241E0,-4.0842112E-2,2.854734E-1,-4.9354643E-1,-4.2321824E-2,1.0604805E0,8.996314E-1,1.2763801E0,-5.6947666E-1,-1.366392E0,4.4697847E-2,-3.7319057E-2,1.33767E0,-3.5234276E-2,-7.196964E-1,6.421401E-1,-8.503727E-1,2.7634203E-1,-4.4073764E-2,1.1114016E0,-2.6689494E-1,9.9470663E-1,-4.8994526E-2,1.2849511E0,3.7275575E-2,-4.0560313E-2,-1.2095965E0,-4.241767E-2,8.129116E-1,4.4160437E-2,2.8219137E-2,-4.418507E-2,-4.8805792E-2,2.5335083E-2,2.6582514E-3,-3.4683786E-2,-4.8818663E-2,1.99758E-2,-4.64093E-2,3.4751978E-2,4.466095E-2,-6.386452E-2,-4.3988068E-2,3.0761188E-2,3.8801987E-2,-3.7115254E-2,-3.913154E-2,5.2483484E-2,4.3293502E-2,-3.562705E-2],"categories":[],"categories_nodes":[],"categories_segments":[],"categories_sizes":[],"default_left":[0,0,0,0,0,0,0,0,0,0,0,0,0,0,0,0,0,0,0,0,0,0,0,0,0,0,0,0,0,0,0,0,0,0,0,0,0,0,0,0,0,0,0,0,0,0,0,0,0,0,0,0,0,0,0,0,0,0,0,0,0,0,0],"id":18,"left_children":[1,3,5,7,9,11,13,15,17,19,-1,21,23,25,-1,27,29,-1,31,33,35,37,39,-1,-1,41,-1,43,45,47,49,-1,51,53,55,-1,57,-1,-1,59,-1,61,-1,-1,-1,-1,-1,-1,-1,-1,-1,-1,-1,-1,-1,-1,-1,-1,-1,-1,-1,-1,-1],"loss_changes":[2.6577654E3,4.6428748E2,1.4012415E2,1.5418889E2,7.8195435E1,3.345703E1,6.219238E1,9.521071E1,3.7751984E1,3.938916E1,0E0,1.3715698E1,2.241235E1,2.37463E1,0E0,1.12266754E2,8.6988106E1,0E0,2.2652863E1,5.22489E1,2.0478638E1,3.7256714E1,5.471924E0,0E0,0E0,1.165802E0,0E0,1.0410805E2,1.0730732E2,6.212303E1,7.580041E1,0E0,2.1848953E1,1.21207054E2,3.4226868E1,0E0,1.7271118E1,0E0,0E0,6.710025E1,0E0,1.3140554E1,0E0,0E0,0E0,0E0,0E0,0E0,0E0,0E0,0E0,0E0,0E0,0E0,0E0,0E0,0E0,0E0,0E0,0E0,0E0,0E0,0E0],"parents":[2147483647,0,0,1,1,2,2,3,3,4,4,5,5,6,6,7,7,8,8,9,9,11,11,12,12,13,13,15,15,16,16,18,18,19,19,20,20,21,21,22,22,25,25,27,27,28,28,29,29,30,30,32,32,33,33,34,34,36,36,39,39,41,41],"right_children":[2,4,6,8,10,12,14,16,18,20,-1,22,24,26,-1,28,30,-1,32,34,36,38,40,-1,-1,42,-1,44,46,48,50,-1,52,54,56,-1,58,-1,-1,60,-1,62,-1,-1,-1,-1,-1,-1,-1,-1,-1,-1,-1,-1,-1,-1,-1,-1,-1,-1,-1,-1,-1],"split_conditions":[-4.5033917E-1,7.011112E-1,6.352505E-2,6.8833494E-1,-5.0703126E-1,2.014881E0,-3.220583E-1,-4.8637456E-1,-1.3181316E0,6.8833494E-1,-4.1176733E-2,-1.2118049E0,2.050802E0,-5.991079E-1,-4.0842112E-2,2.5975847E-1,-9.840395E-2,-4.2321824E-2,-4.351739E-1,-1.3181316E0,-2.5057433E0,-8.034373E-1,-6.596978E-1,4.4697847E-2,-3.7319057E-2,-7.251875E-1,-3.5234276E-2,-4.6841685E-2,2.3955375E-1,-1.0932181E0,-6.7308414E-1,-4.4073764E-2,-6.9441754E-1,-7.552847E-1,-2.8142333E-1,-4.8994526E-2,-3.502688E-1,3.7275575E-2,-4.0560313E-2,1.4051101E0,-4.241767E-2,-4.076225E-3,4.4160437E-2,2.8219137E-2,-4.418507E-2,-4.8805792E-2,2.5335083E-2,2.6582514E-3,-3.4683786E-2,-4.8818663E-2,1.99758E-2,-4.64093E-2,3.4751978E-2,4.466095E-2,-6.386452E-2,-4.3988068E-2,3.0761188E-2,3.8801987E-2,-3.7115254E-2,-3.913154E-2,5.2483484E-2,4.3293502E-2,-3.562705E-2],"split_indices":[27,6,15,11,9,20,3,2,27,11,0,13,20,19,0,20,13,0,7,27,2,9,4,0,0,9,0,0,23,13,3,0,25,19,14,0,19,0,0,3,0,10,0,0,0,0,0,0,0,0,0,0,0,0,0,0,0,0,0,0,0,0,0],"split_type":[0,0,0,0,0,0,0,0,0,0,0,0,0,0,0,0,0,0,0,0,0,0,0,0,0,0,0,0,0,0,0,0,0,0,0,0,0,0,0,0,0,0,0,0,0,0,0,0,0,0,0,0,0,0,0,0,0,0,0,0,0,0,0],"sum_hessian":[3.0560083E3,2.0089879E3,1.0470204E3,7.9342755E2,1.2155604E3,9.973029E2,4.9717472E1,6.256501E2,1.6777744E2,1.2037538E3,1.1806575E1,9.867873E2,1.0515583E1,3.5974613E1,1.3742859E1,3.108586E2,3.147915E2,5.5910125E0,1.6218643E2,4.6770886E2,7.360449E2,2.4090351E1,9.6269696E2,6.4280286E0,4.0875545E0,3.251019E1,3.4644241E0,8.114769E1,2.2971092E2,2.150268E2,9.9764694E1,2.650814E0,1.5953561E2,3.51107E1,4.3259818E2,1.605189E0,7.3443976E2,7.088579E0,1.7001772E1,2.300958E2,7.3260114E2,8.063725E0,2.4446465E1,2.5244946E1,5.590274E1,1.8233028E1,2.1147789E2,5.2993107E1,1.6203369E2,1.6406422E1,8.335828E1,2.2170005E0,1.5731862E2,1.8174524E1,1.6936174E1,4.7481246E0,4.2785004E2,7.324733E2,1.9664229E0,2.2349567E2,6.600125E0,6.3438544E0,1.7198706E0],"tree_param":{"num_deleted":"0","num_feature":"30","num_nodes":"63","size_leaf_vector":"1"}},{"base_weights":[-8.33803E-3,6.430552E-1,-1.1709576E0,6.747452E-2,1.0700047E0,-1.2659949E0,4.39437E-1,-9.7847515E-1,2.650979E-1,-4.6425015E-2,1.0939764E0,-1.3041441E0,9.233697E-1,1.0033729E0,-3.978254E-2,2.5406113E-1,-1.2644461E0,7.831904E-1,-7.86027E-2,1.1136683E0,-3.996601E-2,-1.3225521E0,-4.9622986E-1,4.3649215E-2,-3.418461E-2,-3.49271E-2,1.2156737E0,-3.8898315E-2,1.1299543E0,8.067246E-1,-4.4465814E-2,8.673751E-1,-4.8551284E-2,-6.17256E-1,6.619716E-1,8.484637E-1,1.240356E0,-1.3641093E0,-1.0922276E0,3.603936E-2,-3.980077E-2,1.3613456E0,-3.2204695E-2,-2.9337933E-2,4.549088E-2,-3.4572992E-2,5.0048638E-2,3.0251341E-2,-1.7443426E-2,1.718012E-2,-2.8563056E-2,-2.402842E-2,3.288389E-2,2.7047118E-2,-5.950482E-2,-3.6195472E-2,3.7413027E-2,-3.461757E-2,-4.1766472E-2,-4.183696E-2,-1.1294023E-2,2.6403084E-2,4.3545272E-2],"categories":[],"categories_nodes":[],"categories_segments":[],"categories_sizes":[],"default_left":[0,0,0,0,0,0,0,0,0,0,0,0,0,0,0,0,0,0,0,0,0,0,0,0,0,0,0,0,0,0,0,0,0,0,0,0,0,0,0,0,0,0,0,0,0,0,0,0,0,0,0,0,0,0,0,0,0,0,0,0,0,0,0],"id":19,"left_children":[1,3,5,7,9,11,13,15,17,-1,19,21,23,25,-1,27,29,31,33,35,-1,37,39,-1,-1,-1,41,-1,43,45,-1,47,-1,49,51,53,55,57,59,-1,-1,61,-1,-1,-1,-1,-1,-1,-1,-1,-1,-1,-1,-1,-1,-1,-1,-1,-1,-1,-1,-1,-1],"loss_changes":[2.181046E3,4.5352026E2,1.5883118E2,1.6296428E2,6.818213E1,8.27876E1,5.944807E1,4.448639E1,1.18092125E2,0E0,5.167859E1,1.3627808E1,2.0645086E1,2.203624E1,0E0,3.464654E1,4.713922E1,5.486772E1,1.597316E2,3.398059E1,0E0,7.49292E0,3.401345E1,0E0,0E0,0E0,1.5234215E1,0E0,1.4633972E1,1.9373783E1,0E0,5.2912582E1,0E0,9.287833E1,1.0799887E2,5.2959732E1,1.3114746E1,3.0665283E0,3.16026E1,0E0,0E0,4.265442E-1,0E0,0E0,0E0,0E0,0E0,0E0,0E0,0E0,0E0,0E0,0E0,0E0,0E0,0E0,0E0,0E0,0E0,0E0,0E0,0E0,0E0],"parents":[2147483647,0,0,1,1,2,2,3,3,4,4,5,5,6,6,7,7,8,8,10,10,11,11,12,12,13,13,15,15,16,16,17,17,18,18,19,19,21,21,22,22,26,26,28,28,29,29,31,31,33,33,34,34,35,35,36,36,37,37,38,38,41,41],"right_children":[2,4,6,8,10,12,14,16,18,-1,20,22,24,26,-1,28,30,32,34,36,-1,38,40,-1,-1,-1,42,-1,44,46,-1,48,-1,50,52,54,56,58,60,-1,-1,62,-1,-1,-1,-1,-1,-1,-1,-1,-1,-1,-1,-1,-1,-1,-1,-1,-1,-1,-1,-1,-1],"split_conditions":[-4.5033917E-1,-4.0433925E-2,6.352505E-2,2.7218294E-1,-2.8142333E-1,2.014881E0,-5.0703126E-1,-7.5559455E-1,-5.688099E-1,-4.6425015E-2,-5.0703126E-1,2.554021E-1,2.1973345E0,-5.564706E-1,-3.978254E-2,-9.483989E-1,-1.2366986E0,6.319462E-1,-5.4512795E-2,2.6739116E0,-3.996601E-2,1.5016029E0,-1.2118049E0,4.3649215E-2,-3.418461E-2,-3.49271E-2,-5.991079E-1,-3.8898315E-2,1.1853946E-2,-1.0442442E0,-4.4465814E-2,-5.991079E-1,-4.8551284E-2,-1.0932181E0,1.13001876E-1,-6.2170297E-1,-2.363718E-1,-1.6107501E-1,5.605136E-1,3.603936E-2,-3.980077E-2,6.706319E-2,-3.2204695E-2,-2.9337933E-2,4.549088E-2,-3.4572992E-2,5.0048638E-2,3.0251341E-2,-1.7443426E-2,1.718012E-2,-2.8563056E-2,-2.402842E-2,3.288389E-2,2.7047118E-2,-5.950482E-2,-3.6195472E-2,3.7413027E-2,-3.461757E-2,-4.1766472E-2,-4.183696E-2,-1.1294023E-2,2.6403084E-2,4.3545272E-2],"split_indices":[27,15,15,20,14,20,9,17,2,0,9,11,20,13,0,17,13,18,11,6,0,28,13,0,0,0,19,0,21,4,0,19,0,13,2,9,10,27,10,0,0,10,0,0,0,0,0,0,0,0,0,0,0,0,0,0,0,0,0,0,0,0,0],"split_type":[0,0,0,0,0,0,0,0,0,0,0,0,0,0,0,0,0,0,0,0,0,0,0,0,0,0,0,0,0,0,0,0,0,0,0,0,0,0,0,0,0,0,0,0,0,0,0,0,0,0,0,0,0,0,0,0,0,0,0,0,0,0,0],"sum_hessian":[2.8779492E3,1.8447938E3,1.0331553E3,7.861391E2,1.0586547E3,9.757834E2,5.7371952E1,1.24301994E2,6.618371E2,9.030626E0,1.049624E3,9.594692E2,1.6314209E1,4.3810013E1,1.3561936E1,2.3430033E1,1.0087196E2,2.634441E2,3.9839304E2,1.04171E3,7.9140444E0,9.3747235E2,2.1996841E1,1.3205734E1,3.1084752E0,3.5081012E0,4.0301914E1,8.283928E0,1.5146106E1,9.338759E0,9.15332E1,2.5513925E2,8.304836E0,2.307353E2,1.6765773E2,3.3924356E2,7.0246643E2,7.900093E2,1.4746303E2,7.0793786E0,1.4917462E1,3.8271782E1,2.0301323E0,2.1092377E0,1.3036868E1,2.7493196E0,6.5894403E0,2.3278778E2,2.2351469E1,5.051438E1,1.8022092E2,3.817618E1,1.2948155E2,3.3366803E2,5.575542E0,1.4420834E0,7.0102435E2,9.813991E1,6.918694E2,1.0300518E2,4.445785E1,7.737024E0,3.0534758E1],"tree_param":{"num_deleted":"0","num_feature":"30","num_nodes":"63","size_leaf_vector":"1"}},{"base_weights":[4.387325E-3,6.470225E-1,-1.1458272E0,-3.6510065E-2,1.0771855E0,-4.3406665E-1,-1.2524235E0,-8.1110793E-1,4.617757E-1,-4.0121093E-2,1.0867603E0,-4.498126E-2,3.8058E-1,-1.2745138E0,6.261685E-1,5.517077E-1,-1.0309289E0,1.0520144E0,-5.7621922E-2,9.162879E-1,1.2233453E0,1.0325572E0,-7.581107E-1,-1.0760835E0,-4.1882362E-2,-3.3611093E-2,4.7851395E-2,1.1463429E0,-4.1163594E-2,-4.1984506E-2,-5.529803E-1,1.1119223E0,-4.400815E-2,-9.0851444E-1,3.077843E-1,9.396394E-1,-5.8346152E-2,1.2317234E0,-3.423083E-2,1.2663203E0,-3.7183497E-2,-4.2423185E-2,3.309915E-2,-1.2972634E0,-4.354529E-1,4.173836E-2,-3.1222504E-2,-4.301557E-3,-4.9603567E-2,3.4650814E-2,-4.181767E-2,-5.3400356E-2,3.3219727E-3,1.5144655E-2,-5.373815E-2,-1.4468404E-3,3.0052403E-2,3.793823E-2,2.9285343E-2,4.316138E-2,-3.2088876E-2,-4.149979E-2,-2.3454655E-2,-4.3280754E-2,8.248788E-3],"categories":[],"categories_nodes":[],"categories_segments":[],"categories_sizes":[],"default_left":[0,0,0,0,0,0,0,0,0,0,0,0,0,0,0,0,0,0,0,0,0,0,0,0,0,0,0,0,0,0,0,0,0,0,0,0,0,0,0,0,0,0,0,0,0,0,0,0,0,0,0,0,0,0,0,0,0,0,0,0,0,0,0,0,0],"id":20,"left_children":[1,3,5,7,9,11,13,15,17,-1,19,-1,21,23,25,27,29,31,33,35,37,39,41,43,-1,-1,-1,45,-1,-1,47,49,-1,51,53,55,-1,57,-1,59,-1,-1,-1,61,63,-1,-1,-1,-1,-1,-1,-1,-1,-1,-1,-1,-1,-1,-1,-1,-1,-1,-1,-1,-1],"loss_changes":[2.1281262E3,5.431398E2,7.775452E1,2.7611322E2,2.7663086E1,1.1855818E2,3.8023926E1,8.445714E1,1.3353387E2,0E0,2.5184448E1,0E0,5.856983E1,1.9892578E1,2.056381E1,4.6811977E1,4.1762665E1,3.239215E1,7.257968E1,3.5669495E1,1.3770996E1,2.8083076E1,3.6870506E1,4.779651E1,0E0,0E0,0E0,1.7922394E1,0E0,0E0,4.7898064E1,2.3177948E1,0E0,6.2475796E1,6.849467E1,3.0915253E1,0E0,3.9968872E0,0E0,1.9965767E1,0E0,0E0,0E0,1.0150909E1,6.415291E1,0E0,0E0,0E0,0E0,0E0,0E0,0E0,0E0,0E0,0E0,0E0,0E0,0E0,0E0,0E0,0E0,0E0,0E0,0E0,0E0],"parents":[2147483647,0,0,1,1,2,2,3,3,4,4,5,5,6,6,7,7,8,8,10,10,12,12,13,13,14,14,15,15,16,16,17,17,18,18,19,19,20,20,21,21,22,22,23,23,27,27,30,30,31,31,33,33,34,34,35,35,37,37,39,39,43,43,44,44],"right_children":[2,4,6,8,10,12,14,16,18,-1,20,-1,22,24,26,28,30,32,34,36,38,40,42,44,-1,-1,-1,46,-1,-1,48,50,-1,52,54,56,-1,58,-1,60,-1,-1,-1,62,64,-1,-1,-1,-1,-1,-1,-1,-1,-1,-1,-1,-1,-1,-1,-1,-1,-1,-1,-1,-1],"split_conditions":[-5.840624E-1,1.8177651E-1,-4.7993842E-1,6.6633487E-1,-5.784344E-1,-5.1864064E-1,4.2124934E0,-3.7732956E-1,-5.9601825E-1,-4.0121093E-2,1.6895429E0,-4.498126E-2,-5.0703126E-1,-2.885868E-1,6.182914E-1,2.9539603E-1,1.4077118E-1,6.319462E-1,5.381164E-1,1.112556E0,-3.502688E-1,1.1853946E-2,1.3940043E0,9.55507E-2,-4.1882362E-2,-3.3611093E-2,4.7851395E-2,-3.7342077E-1,-4.1163594E-2,-4.1984506E-2,4.4222125E-1,7.687097E-1,-4.400815E-2,2.3574444E-2,5.7865256E-1,-9.014265E-2,-5.8346152E-2,2.9065437E-3,-3.423083E-2,5.0437444E-1,-3.7183497E-2,-4.2423185E-2,3.309915E-2,1.4051101E0,1.315794E-1,4.173836E-2,-3.1222504E-2,-4.301557E-3,-4.9603567E-2,3.4650814E-2,-4.181767E-2,-5.3400356E-2,3.3219727E-3,1.5144655E-2,-5.373815E-2,-1.4468404E-3,3.0052403E-2,3.793823E-2,2.9285343E-2,4.316138E-2,-3.2088876E-2,-4.149979E-2,-2.3454655E-2,-4.3280754E-2,8.248788E-3],"split_indices":[9,22,9,20,14,9,7,22,2,0,24,0,9,22,25,18,20,18,18,3,19,21,8,20,0,0,0,4,0,0,20,13,0,10,18,7,0,2,0,3,0,0,0,3,8,0,0,0,0,0,0,0,0,0,0,0,0,0,0,0,0,0,0,0,0],"split_type":[0,0,0,0,0,0,0,0,0,0,0,0,0,0,0,0,0,0,0,0,0,0,0,0,0,0,0,0,0,0,0,0,0,0,0,0,0,0,0,0,0,0,0,0,0,0,0,0,0,0,0,0,0,0,0,0,0,0,0,0,0,0,0,0,0],"sum_hessian":[2.8770793E3,1.8460898E3,1.0309895E3,7.1340247E2,1.1326874E3,1.3495383E2,8.9603564E2,2.790243E2,4.3437817E2,3.9261422E0,1.1287612E3,5.8115715E1,7.6838104E1,8.8593945E2,1.0096184E1,3.8545483E1,2.4047882E2,2.0284337E2,2.315348E2,5.0552347E2,6.2323773E2,4.8920834E1,2.791727E1,3.4030756E2,5.456319E2,3.546594E0,6.54959E0,2.9753208E1,8.7922735E0,1.3468933E2,1.0578949E2,1.9867683E2,4.1665215E0,6.911226E1,1.6242255E2,5.0209717E2,3.4263048E0,6.2151447E2,1.7232878E0,4.475836E1,4.1624737E0,2.0820179E1,7.097091E0,2.522072E2,8.8100365E1,2.7083908E1,2.6692998E0,7.791854E1,2.7870947E1,1.95847E2,2.829847E0,3.6854103E1,3.2258156E1,1.4917871E2,1.3243846E1,2.9712889E1,4.7238428E2,5.471561E2,7.435829E1,4.203993E1,2.7184339E0,2.1467863E2,3.7528557E1,3.601157E1,5.2088795E1],"tree_param":{"num_deleted":"0","num_feature":"30","num_nodes":"65","size_leaf_vector":"1"}},{"base_weights":[8.18346E-3,6.5250564E-1,-1.2120619E0,4.4917345E-2,1.038948E0,-1.2765598E0,1.8138993E-1,2.2605342E-1,-1.049271E0,1.0618817E0,-3.9439425E-2,-1.2953942E0,-5.5293314E-2,9.2279184E-1,-3.9594024E-2,-2.1052018E-1,6.01149E-1,4.6081312E-2,-1.260699E0,8.5274583E-1,1.2467585E0,-1.3142399E0,-5.318681E-1,4.129954E-2,-3.8485106E-2,1.324254E0,-3.917021E-2,7.969274E-1,-5.805527E-1,6.954699E-1,-4.7810376E-2,-4.511189E-2,1.07924685E-1,-4.392208E-2,8.828963E-1,1.2530754E0,-3.0398732E-2,-1.2095187E0,-4.1025966E-2,3.5477757E-2,-3.924835E-2,8.783382E-1,4.326913E-2,-4.439972E-2,3.171231E-2,-4.159164E-2,1.04630606E-4,7.5306897E-3,3.18488E-2,5.202602E-2,-3.888583E-2,1.51510155E-2,3.107286E-2,1.4129752E-2,3.7868943E-2,-4.0929325E-2,4.5662683E-2,3.8974915E-2,-2.712264E-2],"categories":[],"categories_nodes":[],"categories_segments":[],"categories_sizes":[],"default_left":[0,0,0,0,0,0,0,0,0,0,0,0,0,0,0,0,0,0,0,0,0,0,0,0,0,0,0,0,0,0,0,0,0,0,0,0,0,0,0,0,0,0,0,0,0,0,0,0,0,0,0,0,0,0,0,0,0,0,0],"id":21,"left_children":[1,3,5,7,9,11,13,15,17,19,-1,21,23,25,-1,27,29,-1,31,33,35,37,39,-1,-1,41,-1,43,45,47,-1,-1,49,-1,51,53,-1,55,-1,-1,-1,57,-1,-1,-1,-1,-1,-1,-1,-1,-1,-1,-1,-1,-1,-1,-1,-1,-1],"loss_changes":[2.250609E3,4.398098E2,8.913403E1,1.447884E2,6.3199707E1,2.1677612E1,5.0896904E1,1.0273102E2,5.8655365E1,4.2802002E1,0E0,1.2699341E1,2.8845114E1,2.898681E1,0E0,1.0868117E2,7.0929596E1,0E0,3.2249878E1,3.869867E1,9.835815E0,3.4134521E0,3.3639126E1,0E0,0E0,1.1830902E-1,0E0,4.800582E1,1.0020011E2,5.2471893E1,0E0,0E0,3.759688E1,0E0,3.0047028E1,3.7246094E0,0E0,1.3522699E2,0E0,0E0,0E0,7.2243075E0,0E0,0E0,0E0,0E0,0E0,0E0,0E0,0E0,0E0,0E0,0E0,0E0,0E0,0E0,0E0,0E0,0E0],"parents":[2147483647,0,0,1,1,2,2,3,3,4,4,5,5,6,6,7,7,8,8,9,9,11,11,12,12,13,13,15,15,16,16,18,18,19,19,20,20,21,21,22,22,25,25,27,27,28,28,29,29,32,32,34,34,35,35,37,37,41,41],"right_children":[2,4,6,8,10,12,14,16,18,20,-1,22,24,26,-1,28,30,-1,32,34,36,38,40,-1,-1,42,-1,44,46,48,-1,-1,50,-1,52,54,-1,56,-1,-1,-1,58,-1,-1,-1,-1,-1,-1,-1,-1,-1,-1,-1,-1,-1,-1,-1,-1,-1],"split_conditions":[-4.5033917E-1,7.011112E-1,1.8617916E-1,-4.3703577E-1,-5.0703126E-1,2.0590338E-1,-3.220583E-1,-1.0288675E0,-1.3377246E0,1.1212678E0,-3.9439425E-2,2.554021E-1,2.1069773E-1,5.191936E-1,-3.9594024E-2,-3.3926582E-1,9.300618E-1,4.6081312E-2,6.879392E-1,-3.2336882E-1,-3.502688E-1,-3.6546454E-1,-1.2118049E0,4.129954E-2,-3.8485106E-2,-7.5690436E-1,-3.917021E-2,-7.451682E-1,5.800242E-1,-5.4512795E-2,-4.7810376E-2,-4.511189E-2,-1.0932181E0,-4.392208E-2,1.6875114E0,-1.243482E-1,-3.0398732E-2,-3.7011287E-1,-4.1025966E-2,3.5477757E-2,-3.924835E-2,-6.353644E-1,4.326913E-2,-4.439972E-2,3.171231E-2,-4.159164E-2,1.04630606E-4,7.5306897E-3,3.18488E-2,5.202602E-2,-3.888583E-2,1.51510155E-2,3.107286E-2,1.4129752E-2,3.7868943E-2,-4.0929325E-2,4.5662683E-2,3.8974915E-2,-2.712264E-2],"split_indices":[27,6,15,12,9,0,3,27,13,11,0,11,0,18,0,22,3,0,17,14,19,25,13,0,0,3,0,12,14,11,0,0,13,0,6,14,0,25,0,0,0,1,0,0,0,0,0,0,0,0,0,0,0,0,0,0,0,0,0],"split_type":[0,0,0,0,0,0,0,0,0,0,0,0,0,0,0,0,0,0,0,0,0,0,0,0,0,0,0,0,0,0,0,0,0,0,0,0,0,0,0,0,0,0,0,0,0,0,0,0,0,0,0,0,0,0,0,0,0,0,0],"sum_hessian":[2.8605225E3,1.8723414E3,9.881811E2,7.283311E2,1.1440104E3,9.445453E2,4.3635796E1,6.25566E2,1.02765144E2,1.1335142E3,1.0496239E1,9.3014E2,1.4405328E1,2.9467703E1,1.4168094E1,2.8929474E2,3.362712E2,7.29521E0,9.546994E1,5.344957E2,5.990184E2,9.0703107E2,2.3108917E1,6.5930204E0,7.812308E0,2.5313232E1,4.1544704E0,7.740334E1,2.1189139E2,3.2307068E2,1.3200554E1,8.098965E1,1.4480294E1,6.255483E0,5.282403E2,5.977931E2,1.2252852E0,3.1390146E2,5.9312964E2,7.040037E0,1.606888E1,7.06536E0,1.8247873E1,7.4560885E0,6.994726E1,8.846171E1,1.2342968E2,1.4669522E2,1.7637544E2,6.600452E0,7.879842E0,1.533888E2,3.7485147E2,7.574212E0,5.902189E2,2.975412E2,1.636024E1,5.9352026E0,1.1301576E0],"tree_param":{"num_deleted":"0","num_feature":"30","num_nodes":"59","size_leaf_vector":"1"}},{"base_weights":[2.7418407E-2,6.4489067E-1,-1.1558156E0,2.2949141E-1,1.1288742E0,-1.2369827E0,3.8488775E-1,-1.0167342E0,4.0100592E-1,-4.3035723E-2,1.1425356E0,-1.2762665E0,8.885133E-1,1.0092326E0,-3.8957596E-2,5.987314E-1,-4.482608E-2,2.609709E-1,1.2141987E0,1.1527903E0,-3.755838E-2,-1.3194451E0,-1.0307726E0,4.29887E-2,-3.3840463E-2,-3.4239408E-2,1.2662053E0,1.4044884E0,-4.136795E-2,4.322264E-1,-7.0566624E-1,1.2577627E0,-5.1211793E-2,1.1586207E0,-2.8578138E-2,-1.1268947E0,-4.048619E-2,-4.044094E-2,-3.0475727E-1,-3.305121E-2,1.4091425E0,4.6823006E-2,2.81128E-2,-3.132981E-2,1.561309E-2,-3.4440845E-2,3.7390046E-2,1.3077719E-2,3.929454E-2,3.212727E-2,3.8834684E-2,-4.0374655E-2,5.0764058E-2,4.9777206E-2,-4.0573236E-2,4.53848E-2,2.5975952E-2],"categories":[],"categories_nodes":[],"categories_segments":[],"categories_sizes":[],"default_left":[0,0,0,0,0,0,0,0,0,0,0,0,0,0,0,0,0,0,0,0,0,0,0,0,0,0,0,0,0,0,0,0,0,0,0,0,0,0,0,0,0,0,0,0,0,0,0,0,0,0,0,0,0,0,0,0,0],"id":22,"left_children":[1,3,5,7,9,11,13,15,17,-1,19,21,23,25,-1,27,-1,29,31,33,-1,35,37,-1,-1,-1,39,41,-1,43,45,47,-1,49,-1,51,-1,-1,53,-1,55,-1,-1,-1,-1,-1,-1,-1,-1,-1,-1,-1,-1,-1,-1,-1,-1],"loss_changes":[2.0779204E3,3.7545575E2,1.2243628E2,2.1562994E2,3.1857056E1,7.851001E1,5.3411777E1,9.507134E1,1.00555374E2,0E0,2.2532593E1,8.289185E0,2.072615E1,2.173893E1,0E0,4.7460415E1,0E0,1.256127E2,1.8672897E1,1.1608032E1,0E0,2.9442139E0,3.200363E1,0E0,0E0,0E0,1.2815334E1,5.6251526E-2,0E0,8.437695E1,1.0013067E2,4.92749E0,0E0,8.788818E0,0E0,7.029851E1,0E0,0E0,9.296008E1,0E0,4.8254395E-1,0E0,0E0,0E0,0E0,0E0,0E0,0E0,0E0,0E0,0E0,0E0,0E0,0E0,0E0,0E0,0E0],"parents":[2147483647,0,0,1,1,2,2,3,3,4,4,5,5,6,6,7,7,8,8,10,10,11,11,12,12,13,13,15,15,17,17,18,18,19,19,21,21,22,22,26,26,27,27,29,29,30,30,31,31,33,33,35,35,38,38,40,40],"right_children":[2,4,6,8,10,12,14,16,18,-1,20,22,24,26,-1,28,-1,30,32,34,-1,36,38,-1,-1,-1,40,42,-1,44,46,48,-1,50,-1,52,-1,-1,54,-1,56,-1,-1,-1,-1,-1,-1,-1,-1,-1,-1,-1,-1,-1,-1,-1,-1],"split_conditions":[-4.5033917E-1,1.6875114E0,7.6795477E-1,1.8805314E-2,-3.2336882E-1,2.014881E0,-5.975833E-1,-3.7732956E-1,3.663931E0,-4.3035723E-2,-3.502688E-1,1.5016029E0,2.1973345E0,-5.564706E-1,-3.8957596E-2,-1.0395225E0,-4.482608E-2,-5.5167145E-1,2.128431E-1,-5.0703126E-1,-3.755838E-2,-9.1940486E-1,5.610901E-1,4.29887E-2,-3.3840463E-2,-3.4239408E-2,-6.71221E-1,-8.145535E-1,-4.136795E-2,-1.761993E-2,1.0164467E0,-3.5195243E-2,-5.1211793E-2,5.638319E0,-2.8578138E-2,-9.256184E-1,-4.048619E-2,-4.044094E-2,6.169494E-1,-3.305121E-2,-5.9908694E-1,4.6823006E-2,2.81128E-2,-3.132981E-2,1.561309E-2,-3.4440845E-2,3.7390046E-2,1.3077719E-2,3.929454E-2,3.212727E-2,3.8834684E-2,-4.0374655E-2,5.0764058E-2,4.9777206E-2,-4.0573236E-2,4.53848E-2,2.5975952E-2],"split_indices":[27,6,22,5,14,20,9,22,24,0,19,28,20,13,0,2,0,19,15,9,0,13,16,0,0,0,1,8,0,17,2,16,0,24,0,13,0,0,16,0,1,0,0,0,0,0,0,0,0,0,0,0,0,0,0,0,0],"split_type":[0,0,0,0,0,0,0,0,0,0,0,0,0,0,0,0,0,0,0,0,0,0,0,0,0,0,0,0,0,0,0,0,0,0,0,0,0,0,0,0,0,0,0,0,0,0,0,0,0,0,0,0,0,0,0,0,0],"sum_hessian":[2.8420532E3,1.8677963E3,9.74257E2,1.00590765E3,8.6188855E2,9.2568726E2,4.8569736E1,1.210959E2,8.848117E2,4.017663E0,8.578709E2,9.092813E2,1.6405956E1,3.57221E1,1.2847638E1,2.75681E1,9.35278E1,7.5595435E2,1.288574E2,8.5472894E2,3.1419508E0,7.695538E2,1.3972754E2,1.3146045E1,3.2599118E0,3.4455638E0,3.2276535E1,1.9793488E1,7.774613E0,6.4265106E2,1.13303246E2,1.27525116E2,1.3323009E0,8.5281696E2,1.911976E0,1.0921605E2,6.603377E2,9.66403E1,4.3087242E1,1.4555825E0,3.0820953E1,1.3080569E1,6.7129183E0,3.5616966E1,6.070341E2,9.2706085E1,2.0597157E1,8.154712E0,1.193704E2,5.236505E2,3.2916647E2,1.01830444E2,7.3856072E0,1.4785845E1,2.83014E1,2.4382866E1,6.4380865E0],"tree_param":{"num_deleted":"0","num_feature":"30","num_nodes":"57","size_leaf_vector":"1"}},{"base_weights":[1.1835437E-2,6.1924875E-1,-1.1143725E0,2.5155187E-1,1.1020292E0,-1.1811736E0,8.4606874E-1,-1.4679289E-1,6.5167713E-1,4.7402126E-1,1.1449902E0,-1.2286812E0,-1.6185386E-2,1.1083844E0,-3.340132E-2,8.545123E-1,-5.5550337E-1,-4.698727E-2,6.951534E-1,9.334452E-1,-5.8787517E-2,1.231528E0,9.149551E-1,1.0682575E-1,-1.2473587E0,7.8325725E-1,-3.8861476E-2,-3.021703E-2,1.3245448E0,9.890087E-1,-4.8281714E-2,1.2274184E0,-6.373014E-1,8.5678303E-1,1.13925554E-1,1.0920165E0,-4.131794E-2,1.2407392E0,-4.207762E-2,-5.701587E-2,9.62526E-1,3.2024927E-2,-3.4198172E-2,1.8467858E-2,-1.2662796E0,-3.4888048E-2,3.7035704E-2,8.2127374E-1,4.421017E-2,-4.7464386E-2,3.263382E-2,4.6807364E-2,-2.941874E-2,9.118691E-4,-2.8129395E-2,-1.2607758E-2,2.720634E-2,-5.312855E-2,1.3426388E-2,3.7205465E-2,9.331141E-3,-4.2745993E-2,3.7472066E-2,2.9619813E-2,-4.5652915E-2,-3.542339E-2,4.102264E-2,-3.377652E-2,-4.017497E-2,3.9384916E-2,-2.6530752E-2],"categories":[],"categories_nodes":[],"categories_segments":[],"categories_sizes":[],"default_left":[0,0,0,0,0,0,0,0,0,0,0,0,0,0,0,0,0,0,0,0,0,0,0,0,0,0,0,0,0,0,0,0,0,0,0,0,0,0,0,0,0,0,0,0,0,0,0,0,0,0,0,0,0,0,0,0,0,0,0,0,0,0,0,0,0,0,0,0,0,0,0],"id":23,"left_children":[1,3,5,7,9,11,13,15,17,19,21,23,25,27,-1,29,31,-1,33,35,-1,37,39,41,43,45,-1,-1,47,49,-1,51,53,55,57,59,-1,61,-1,-1,63,-1,-1,65,67,-1,-1,69,-1,-1,-1,-1,-1,-1,-1,-1,-1,-1,-1,-1,-1,-1,-1,-1,-1,-1,-1,-1,-1,-1,-1],"loss_changes":[1.9150048E3,3.225484E2,1.2945007E2,1.6484174E2,2.0661926E1,5.2499878E1,1.814599E1,2.1278122E2,5.0829697E1,6.000074E1,1.3502991E1,2.287561E1,4.007385E1,1.4833729E1,0E0,5.1554153E1,5.459839E1,0E0,4.749568E1,1.7788849E1,0E0,1.4627319E1,2.925734E1,1.7381758E1,2.1561035E1,2.2626125E1,0E0,0E0,8.322334E-1,3.819008E1,0E0,1.3676958E1,7.091536E1,2.5729584E1,7.083333E1,4.491352E0,0E0,1.3543213E1,0E0,0E0,1.3951157E1,0E0,0E0,2.4633566E1,7.558716E0,0E0,0E0,8.270542E0,0E0,0E0,0E0,0E0,0E0,0E0,0E0,0E0,0E0,0E0,0E0,0E0,0E0,0E0,0E0,0E0,0E0,0E0,0E0,0E0,0E0,0E0,0E0],"parents":[2147483647,0,0,1,1,2,2,3,3,4,4,5,5,6,6,7,7,8,8,9,9,10,10,11,11,12,12,13,13,15,15,16,16,18,18,19,19,21,21,22,22,23,23,24,24,25,25,28,28,29,29,31,31,32,32,33,33,34,34,35,35,37,37,40,40,43,43,44,44,47,47],"right_children":[2,4,6,8,10,12,14,16,18,20,22,24,26,28,-1,30,32,-1,34,36,-1,38,40,42,44,46,-1,-1,48,50,-1,52,54,56,58,60,-1,62,-1,-1,64,-1,-1,66,68,-1,-1,70,-1,-1,-1,-1,-1,-1,-1,-1,-1,-1,-1,-1,-1,-1,-1,-1,-1,-1,-1,-1,-1,-1,-1],"split_conditions":[-4.5033917E-1,6.8833494E-1,1.8822042E0,1.7522389E-1,3.2975557E-1,2.554021E-1,2.1973345E0,-7.2624046E-1,9.337461E-1,-4.984954E-1,-6.1815655E-1,-2.8346448E0,-6.258031E-1,5.21696E-2,-3.340132E-2,-1.3236323E-1,-7.8585304E-2,-4.698727E-2,-6.1515474E-1,-6.264027E-1,-5.8787517E-2,7.8336024E-1,-1.0567125E0,-9.9680805E-1,-7.3431975E-1,-6.382341E-1,-3.8861476E-2,-3.021703E-2,1.0019207E0,-6.9376075E-1,-4.8281714E-2,-5.5830378E-2,-1.039106E0,-2.6914934E-3,